fc1.weight,fc1.bias,fc2.weight,fc2.bias,fc3.weight,fc3.bias
"tensor([[ 4.2234e-01,  8.2297e-02,  1.6062e-01,  1.4360e-03,  2.9275e-01,
         -5.0740e-01,  1.5395e-01, -2.0419e-02,  3.8879e-01,  2.7158e-02,
         -5.4299e-02, -5.3967e-01,  3.2984e-01, -4.7330e-01, -1.0905e-01,
         -5.8743e-01,  5.3612e-01,  2.4004e-01,  1.8715e-01,  2.9434e-01,
          1.0791e-01, -3.8041e-01,  2.0096e-01,  3.8184e-01,  9.2556e-01,
          1.8735e-01,  2.1958e-01,  1.1723e+00, -3.4187e-01, -5.0073e-01,
          2.5607e-01,  1.2404e+00,  8.8017e-01,  4.7993e-01, -1.9231e-01,
         -2.5956e-02, -2.4574e-01, -5.0731e-01, -2.1014e-01, -5.9069e-02,
          7.9474e-01,  5.6274e-01, -5.9677e-02, -2.7908e-01, -1.0485e-01,
         -4.3257e-01, -1.1192e-01, -2.0121e-01],
        [ 8.7975e-01, -8.5292e-01, -2.2361e-01,  3.9741e-01,  2.1656e-02,
         -4.3065e-01, -2.2163e-01,  3.5921e-01,  1.0396e+00, -6.9700e-01,
         -1.1224e-01,  2.9818e-01, -3.4938e-02, -1.4605e-01, -9.1403e-02,
          2.9388e-01,  9.8526e-01, -6.7186e-01, -2.3110e-01, -4.1078e-01,
         -1.7518e-01, -5.9941e-02, -2.1425e-01, -5.2572e-01,  1.6745e-01,
         -1.6399e-01, -2.9796e-01, -4.7340e-01, -5.1446e-02, -5.1963e-01,
         -3.0394e-01, -5.2225e-01,  1.1357e-01, -3.0723e-01,  2.1136e-02,
         -7.9539e-01,  4.2936e-02, -1.4951e-01,  6.2890e-02, -7.8046e-01,
          3.1395e-01, -3.7327e-01, -1.8826e-01, -3.7553e-01,  1.5293e-01,
         -5.4497e-02, -1.8065e-01, -3.5337e-01],
        [ 1.4358e+00,  4.9509e-01,  2.2943e-01, -5.8123e-02,  1.7420e-01,
         -5.4588e-01,  2.9523e-01, -1.3676e-01,  1.4737e+00,  5.5208e-01,
          1.1575e-01, -4.3797e-01,  2.2035e-01, -1.1935e+00,  5.5751e-02,
         -5.3066e-01,  1.1164e+00,  6.0957e-01, -1.3831e-01, -2.2947e-02,
          3.6882e-01, -1.7942e+00, -2.2382e-01, -3.6135e-02,  4.2794e-01,
         -6.2015e-01, -5.4138e-02, -3.5606e-01, -2.2039e-01, -5.3173e-01,
         -2.5367e-02, -4.0145e-01,  5.6792e-01, -2.6650e-01, -1.9232e-02,
          4.8923e-01, -2.2768e-01, -1.1904e+00, -8.4807e-03,  5.5687e-01,
          4.9092e-01, -2.1099e-01,  2.1306e-01, -1.0318e-01, -3.0460e-01,
         -1.7315e+00,  2.8732e-01, -1.6337e-01],
        [ 9.7808e-01,  1.8728e-01, -1.8663e-03,  9.2929e-02,  1.3186e-01,
         -8.7449e-01, -3.2462e-02,  6.5206e-02,  7.5115e-01, -8.0477e-01,
         -4.6789e-02, -2.6370e-01,  1.4508e-01,  2.4098e-01, -3.2515e-02,
         -2.4887e-01,  7.5713e-01, -1.4412e+00, -4.3691e-02,  2.5825e-01,
          1.9924e-01,  1.0935e+00, -3.1579e-02,  2.1978e-01,  2.5637e-01,
         -2.1939e+00,  1.4674e-01,  1.5907e-01, -1.1738e-01, -8.4337e-01,
          6.7566e-02,  2.0006e-01, -1.5785e-01, -2.0944e+00, -1.6939e-01,
          1.1928e+00, -1.8646e-01,  3.1062e-01, -1.2651e-01,  1.1294e+00,
          5.0620e-02, -1.6125e+00, -1.0754e-01,  2.6541e+00, -1.8219e-01,
          1.1719e+00, -1.7588e-01,  2.6450e+00],
        [ 1.5886e+00, -3.6915e-01, -2.7128e-01, -3.5083e-01,  3.9388e-01,
         -6.1262e-01, -2.7328e-01, -3.0933e-01,  1.2685e+00, -5.9475e-01,
         -1.8449e-01, -5.8519e-01,  3.0678e-01, -9.1422e-01, -2.0845e-01,
         -6.5874e-01,  8.4727e-01, -5.2426e-01, -5.6125e-02,  1.3978e-01,
          1.3521e-01, -9.4608e-01, -6.9715e-02,  1.3633e-01,  3.6023e-01,
          5.3226e-01,  1.1260e-01,  3.6378e-01, -4.1954e-01, -6.8796e-01,
          5.7808e-02,  3.5476e-01,  1.4653e-01,  4.0244e-01,  9.8903e-02,
          4.8652e-02, -3.4223e-01, -8.9819e-01,  1.3698e-01,  4.0982e-02,
          4.8280e-02, -2.3126e-02, -1.7229e-02, -1.6989e-01, -1.1126e-01,
         -9.9491e-01, -3.0377e-02, -2.2469e-01],
        [ 4.5573e-01,  1.0431e+00, -1.5438e-01,  3.9326e-01,  4.5115e-01,
         -8.7795e-01, -1.7482e-01,  4.1588e-01,  5.8285e-01,  1.1960e+00,
          3.0023e-01,  3.1805e-01,  4.9629e-01, -1.1832e+00,  2.3651e-01,
          3.8041e-01,  5.5288e-01,  1.1864e+00,  1.8466e-02,  3.2327e-01,
          2.7802e-01, -1.1958e+00,  5.5441e-02,  2.8887e-01,  4.8400e-01,
          5.2605e-01, -3.7724e-01, -1.6012e-01, -4.0985e-01, -9.3729e-01,
         -2.7531e-01, -1.3825e-01,  5.9668e-01,  5.8061e-01, -6.2451e-02,
         -1.0875e-01, -5.1498e-01, -1.1929e+00, -4.0912e-02, -2.2137e-01,
          5.5001e-01,  3.6310e-01,  8.2096e-02, -2.2659e-01, -2.2620e-01,
         -1.2671e+00,  7.9579e-02, -2.4843e-01],
        [ 4.2205e-01,  9.3453e-01, -1.8402e-01, -4.9950e-01, -3.9536e-01,
         -7.8525e-01, -2.2615e-01, -5.8017e-01,  4.0370e-01,  3.7550e-01,
         -7.1708e-02, -6.5712e-01,  4.7926e-01, -4.1864e-01, -6.1920e-02,
         -7.6286e-01,  6.5300e-02, -1.4655e-01, -4.7092e-01, -3.8622e-01,
          6.4528e-01, -1.8155e-01, -4.4535e-01, -3.7943e-01,  1.0697e+00,
          4.4578e-01, -5.4039e-02, -1.6494e-01,  4.2923e-01, -8.5782e-01,
         -4.4599e-02, -1.5145e-01,  1.1885e+00,  2.6276e-02,  9.4576e-02,
         -4.3446e-01, -3.9184e-01, -3.9013e-01,  1.0266e-01, -4.1891e-01,
          1.0751e+00, -2.0282e-01,  1.6596e-01, -7.8799e-01, -6.1246e-01,
         -2.0417e-01,  2.1911e-01, -8.0982e-01],
        [ 1.5130e-01,  1.0768e+00, -8.2142e-02,  6.4557e-01,  6.0338e-01,
         -8.4961e-01, -5.5318e-02,  6.5576e-01,  2.2179e-01,  1.6889e+00,
          4.3528e-02,  8.9876e-01,  9.9097e-02, -9.0360e-01, -4.4012e-02,
          8.7149e-01,  1.2421e-01,  2.5507e+00,  7.7752e-02,  1.3301e+00,
         -1.5062e-01, -1.1946e+00,  1.8133e-02,  1.2872e+00,  4.4744e-01,
         -1.2528e+00, -5.5829e-02, -1.3047e+00, -5.6242e-01, -9.2563e-01,
         -5.3525e-02, -1.3557e+00,  7.6842e-01, -1.2827e+00,  5.5071e-02,
         -6.5785e-01, -1.5858e-01, -9.7767e-01,  3.5817e-02, -7.0331e-01,
          7.2340e-01, -1.0120e+00, -6.4277e-02,  1.2905e-01,  1.5791e-01,
         -1.1197e+00, -5.1171e-02,  2.3881e-01],
        [ 8.1301e-01,  1.2285e+00, -2.6706e-01, -3.1920e-01,  1.8162e-01,
          1.0354e-01, -3.0419e-01, -3.5679e-01,  6.9271e-01,  7.7059e-01,
          2.3410e-02, -7.5269e-01,  2.5825e-01, -1.2629e-01, -8.6951e-02,
         -6.9811e-01,  6.5826e-01,  5.3973e-01,  8.4182e-02,  4.1210e-02,
          2.1407e-01, -1.0428e-01, -4.3732e-03,  9.6041e-02,  1.3267e-01,
          1.4466e+00,  8.3604e-02, -5.7683e-02, -1.2639e-01,  9.9912e-02,
          4.8089e-02, -6.9454e-02,  4.3272e-01,  1.3867e+00,  4.6745e-01,
         -3.3571e-01, -2.0827e-01, -9.5289e-02,  4.7448e-01, -4.1265e-01,
          3.9949e-01,  1.0332e+00, -5.0000e-01, -5.2642e-01, -1.3809e-01,
         -1.3817e-01, -4.8812e-01, -4.5775e-01],
        [ 3.4579e-01, -5.0985e-01,  7.7159e-02,  2.1080e-01,  4.4209e-01,
         -1.2508e-01,  2.3673e-03,  1.8811e-01,  3.1417e-01, -2.2292e-01,
         -2.6244e-01,  3.9464e-02,  6.8332e-01, -1.9053e-01, -2.7482e-01,
         -2.3451e-02,  4.7604e-01, -1.0909e-01,  2.6034e-01,  4.3954e-01,
          6.4981e-01,  3.0415e-01,  1.7091e-01,  4.6186e-01,  4.7221e-01,
          7.8781e-02, -3.0815e-01, -1.3228e+00, -4.8219e-01, -1.2294e-01,
         -2.9614e-01, -1.3578e+00,  3.6343e-01, -5.0313e-01, -5.5498e-03,
          1.0638e+00, -7.1412e-01, -1.5426e-01,  2.9699e-02,  1.0042e+00,
          5.8573e-01, -6.0425e-01,  3.7059e-01, -1.2954e-01, -6.5595e-01,
          2.0334e-01,  4.2477e-01, -1.4938e-01],
        [ 3.9486e-01,  9.2421e-01, -3.3696e-01, -9.0405e-02,  1.4650e-01,
         -4.8874e-01, -3.5399e-01, -7.9745e-02,  5.5376e-01,  1.1068e+00,
          7.1946e-02, -2.0075e-01, -3.1986e-02, -3.0800e-01,  8.9684e-02,
         -2.3195e-01,  6.2619e-01,  8.2017e-01,  3.9141e-01, -1.3154e-01,
         -1.8338e-01, -1.2704e-01,  3.0080e-01, -1.6392e-01,  8.6317e-02,
          3.5057e-01, -3.5480e-01,  3.7596e-01, -1.5695e-01, -3.8179e-01,
         -3.5927e-01,  2.7385e-01,  1.3404e-01,  5.6187e-01, -1.8703e-01,
          1.6103e-01,  1.0101e-01, -3.2347e-01, -1.4623e-01,  2.2976e-01,
          2.8870e-01,  2.9535e-01,  1.7923e-01, -1.3976e-01,  2.4372e-01,
         -1.0508e-01,  1.2172e-01, -2.0350e-01],
        [ 5.4642e-01,  1.3877e-01, -1.6273e-01,  1.7435e-02,  1.4928e+00,
         -1.7973e+00, -2.3028e-01,  2.7096e-02,  4.6298e-01, -3.0861e-01,
          3.5519e-02, -3.0114e-01,  3.5349e-01,  7.8231e-02,  1.9754e-02,
         -3.2937e-01,  2.4692e-01, -5.7510e-01,  4.0802e-03, -4.0708e-01,
         -8.3218e-01,  1.3055e+00,  8.4606e-05, -4.7327e-01,  6.7569e-01,
         -1.6544e-01,  1.1304e-01,  4.1938e-03, -1.5454e+00, -1.7968e+00,
          5.5676e-02,  3.3031e-02,  7.8272e-01, -8.8088e-01,  2.1844e-01,
         -1.7411e+00, -3.6838e-01,  7.5107e-02,  2.2619e-01, -1.7977e+00,
          6.0249e-01, -1.9542e+00,  9.8221e-02, -1.9898e-01,  8.8355e-01,
          1.2624e+00,  1.0451e-01, -1.3909e-01],
        [-8.2703e-01,  2.0048e+00,  5.9480e-02, -4.2999e-03, -4.3442e-01,
          2.0170e+00,  3.6273e-02,  9.9004e-03, -8.9234e-01,  2.1915e+00,
         -5.9978e-03, -6.0636e-02, -3.5253e-01, -4.7979e-01,  1.2313e-02,
         -1.7078e-02, -1.0562e+00,  2.4216e+00, -1.6410e-01, -4.7377e-02,
         -3.6965e-02, -3.9820e+00, -1.6854e-01, -1.7701e-02, -1.0217e-01,
         -1.7696e+00,  1.5618e-02,  1.2831e-01,  5.3129e-01,  1.9336e+00,
          8.4040e-02,  1.9196e-01, -2.2350e-01, -1.0770e+00,  5.9645e-03,
          7.1847e-02,  3.2584e-01, -4.8516e-01,  5.8304e-02,  1.4573e-01,
         -3.4789e-01, -8.6076e-02,  4.9554e-02, -8.2358e-02,  1.5662e-02,
         -3.8927e+00,  9.7490e-03, -1.0050e-01],
        [ 5.7812e-01, -5.3544e-01, -8.8359e-02, -3.1543e-01,  6.5173e-01,
         -6.3547e-01, -1.0096e-01, -2.8808e-01,  5.5264e-01, -5.4858e-01,
         -9.9446e-02,  3.7295e-01,  2.2592e-01,  2.3065e-02, -4.7135e-02,
          3.4751e-01,  8.3616e-01, -5.0974e-01, -8.8338e-02,  3.3789e-01,
         -3.7138e-02,  3.8680e-01, -4.6922e-02,  4.0855e-01,  8.9634e-01,
         -3.3193e-02, -1.4371e-01, -1.6349e-01, -6.6136e-01, -7.2954e-01,
         -1.5252e-01, -2.3394e-01,  8.4440e-01, -3.2549e-01, -3.0982e-01,
         -4.6951e-01, -2.0406e-01, -1.6757e-02, -3.6087e-01, -5.5237e-01,
          7.5827e-01, -6.8952e-01, -2.7868e-01, -1.0752e+00, -1.9111e-02,
          4.3775e-01, -3.7759e-01, -1.0461e+00],
        [ 2.2469e-01,  1.0646e+00,  1.4839e-01, -5.1372e-01,  1.2399e-01,
         -4.9055e-01,  1.6887e-01, -5.4786e-01,  2.2229e-01,  5.3785e-01,
          3.5510e-02, -9.8763e-01, -5.2952e-04, -2.3801e-03,  6.4207e-02,
         -9.2888e-01,  2.2065e-01,  4.0026e-01, -1.4634e-01, -2.8358e-01,
          6.7163e-02,  3.1768e-01, -7.2884e-02, -2.9466e-01,  5.4637e-01,
          4.0128e-01,  2.4081e-01, -9.2986e-01, -3.6147e-02, -4.3619e-01,
          2.6481e-01, -8.3945e-01,  4.1114e-01,  1.9348e-01, -9.9773e-02,
         -2.0968e-01, -3.5230e-02,  5.8336e-02, -5.0865e-02, -2.0233e-01,
          5.0365e-01, -1.1801e-01, -3.5010e-02, -1.5908e-01, -1.0213e-01,
          2.6806e-01, -1.0757e-02, -2.6939e-01],
        [-9.0876e-02, -7.5605e-01,  1.8871e-03, -3.6614e-01,  2.4622e+00,
         -1.7103e-01,  1.0707e-01, -4.1846e-01,  3.1001e-03, -1.2799e+00,
         -2.4487e-02, -1.9576e-01,  1.1037e-02,  3.9456e-01,  2.4897e-02,
         -1.6945e-01, -1.8119e-01, -1.3850e+00, -3.8760e-02, -1.4235e-01,
         -2.4509e+00,  1.4460e+00, -3.5738e-02, -1.7196e-01,  3.8003e-01,
          3.9460e-02, -8.8543e-03,  1.3065e-01, -2.4938e+00, -2.2970e-01,
         -4.1363e-02,  1.6689e-01,  3.0747e-01,  9.3901e-02,  9.1683e-03,
          2.3121e-04,  7.1320e-02,  4.0755e-01,  1.5722e-02,  7.8414e-03,
          2.7534e-01, -7.4002e-01,  4.5485e-02, -2.9031e-01,  2.4002e+00,
          1.3843e+00,  2.6775e-02, -3.0908e-01],
        [-8.6259e-01,  1.7150e+00,  3.1916e-02,  4.5894e-01,  3.2604e-01,
         -1.4869e-01,  7.3681e-03,  3.8176e-01, -7.7682e-01,  2.0195e+00,
         -8.2278e-04,  5.7009e-01,  2.0608e-01, -2.0598e+00, -7.9953e-02,
          5.3620e-01, -9.7568e-01,  2.2791e+00, -6.2888e-02,  2.2834e-01,
          4.3291e-03, -5.1386e+00, -4.5725e-03,  2.2089e-01, -6.6772e-01,
          4.8462e-01,  1.3116e-01, -2.6746e-02, -3.6079e-01, -1.0286e-01,
          5.7988e-02,  2.1388e-03, -6.4303e-01,  6.1722e-01,  2.2942e-02,
          5.4849e-02, -2.2080e-01, -2.0718e+00,  5.3208e-03, -2.3496e-02,
         -6.6691e-01,  1.1706e+00, -8.1525e-02, -4.8222e-02,  5.1802e-02,
         -5.1693e+00, -4.4683e-02, -6.3003e-02],
        [ 5.6272e-01,  2.7040e-02, -2.4296e-01, -3.9795e-01, -1.7593e-01,
         -7.3187e-01, -3.0785e-01, -3.8788e-01,  5.3356e-01,  2.7735e-01,
         -1.0137e-01,  2.2545e-01, -2.1963e-01, -8.1707e-01, -7.5582e-02,
          1.8671e-01,  6.4922e-01,  4.6193e-01,  9.0802e-01,  3.0663e-01,
         -4.1976e-01, -1.0182e+00,  8.9511e-01,  3.0105e-01,  4.7414e-01,
          5.8647e-01,  2.9292e-01,  2.0680e-01,  9.1165e-02, -7.4045e-01,
          2.2930e-01,  2.3018e-01,  4.7241e-01,  4.6391e-01, -6.1818e-02,
         -2.3467e-01,  2.1988e-01, -8.8608e-01, -8.0056e-02, -3.0122e-01,
          4.0115e-01,  2.9134e-01, -1.6850e-01, -1.4492e-01,  4.2601e-01,
         -1.0804e+00, -2.5593e-01, -2.1386e-01],
        [ 9.1983e-01,  3.7346e+00, -2.0078e-02,  8.4035e-01,  5.9065e-01,
          1.3625e+00, -8.7554e-03,  9.1660e-01,  8.1201e-01,  3.5436e+00,
          1.4214e-02,  2.1125e-01,  9.1572e-01,  6.5720e-01, -2.3502e-02,
          2.7690e-01,  7.0185e-01,  3.0302e+00,  1.5843e-01, -2.7579e-01,
          1.2881e+00, -1.1215e-01,  1.0132e-01, -3.6741e-01,  1.3000e-01,
          3.9291e+00, -4.1071e-02, -1.3977e-01, -6.1160e-01,  1.3327e+00,
         -5.1311e-02, -1.0293e-01,  3.9315e-02,  4.6641e+00, -5.2508e-02,
         -3.2575e-02, -1.0073e+00,  6.6938e-01,  1.3437e-02,  2.7952e-02,
          4.9762e-02,  4.5177e+00, -6.4687e-02,  1.8272e-02, -1.3010e+00,
         -9.7424e-02,  1.6105e-02,  4.6133e-02],
        [-1.9718e-01,  2.1825e+00,  5.4950e-02,  5.4891e-01,  2.6733e-01,
         -5.7503e-01, -1.1993e-02,  5.3609e-01, -1.4859e-01,  2.5139e+00,
          8.5010e-02,  7.6081e-01, -1.0519e-01, -5.8045e-01,  7.8913e-02,
          7.0333e-01, -2.9186e-01,  2.6869e+00,  1.5025e-01, -2.1435e-01,
         -5.9782e-01, -1.2726e-01,  1.7343e-01, -2.9014e-01,  3.1701e-01,
          3.9520e+00, -2.1223e-01,  6.2297e-01, -2.4491e-01, -5.7085e-01,
         -1.3667e-01,  6.8741e-01,  1.6592e-01,  4.2462e+00, -5.0617e-02,
          4.8872e-01,  9.6448e-03, -4.9966e-01, -9.9454e-02,  4.5358e-01,
          2.7904e-02,  3.0041e+00,  8.2819e-02, -1.7452e+00,  5.4837e-01,
         -1.7413e-01,  9.8995e-02, -1.8028e+00],
        [ 5.5251e-01,  1.9101e+00, -2.8751e-02, -3.9582e-01,  2.8246e-01,
          1.7471e-01, -2.6765e-02, -3.2399e-01,  8.0347e-01,  1.6737e+00,
          1.3519e-01, -1.9376e-01,  1.1048e+00, -5.1520e-01,  1.6647e-01,
         -2.1832e-01,  8.4211e-01,  1.1559e+00, -6.3989e-02, -5.5062e-01,
          2.1461e+00, -9.4697e-01, -3.0827e-02, -5.0540e-01,  9.7653e-01,
          9.6045e-01,  2.6716e-01, -2.0664e-01, -2.5799e-01,  9.6083e-02,
          3.3598e-01, -1.9691e-01,  1.0067e+00,  1.2840e+00,  8.9969e-02,
         -1.6784e-01, -1.0237e+00, -5.1795e-01,  1.1444e-01, -1.9918e-01,
          1.0478e+00,  1.8813e+00,  3.9953e-02,  6.9033e-03, -2.1147e+00,
         -9.6610e-01,  3.5976e-02,  1.7470e-02],
        [ 8.3434e-01, -1.8546e-01,  4.3238e-01, -5.1669e-01,  1.0631e-01,
         -7.9336e-01,  3.6361e-01, -5.4996e-01,  6.7606e-01, -3.3624e-01,
         -3.5958e-01, -1.0455e+00, -1.0478e-01, -6.1823e-01, -4.1085e-01,
         -1.0471e+00,  4.9917e-01, -5.1868e-01,  7.0738e-04, -7.1440e-01,
         -1.5157e-01, -1.5404e-01, -6.3971e-04, -8.1286e-01,  2.1182e-01,
          8.6498e-01,  1.3479e-02, -6.9239e-01, -1.1485e-01, -8.9969e-01,
          1.3094e-02, -6.7050e-01,  2.1784e-01,  6.8178e-01, -1.4979e-01,
         -6.5617e-01,  1.4217e-01, -6.2588e-01, -6.8826e-02, -6.8873e-01,
          2.0484e-01,  3.5070e-01, -3.9618e-02, -6.1606e-01,  1.4993e-01,
         -2.2764e-01, -4.9362e-02, -6.1988e-01],
        [ 9.6134e-01,  1.0948e+00,  2.1863e-01,  1.5993e-01, -2.4415e-01,
         -9.6856e-01,  3.0532e-01,  2.6993e-01,  1.2585e+00,  1.2942e+00,
          3.5253e-01, -3.6591e-01, -3.6437e-01, -4.9393e-01,  3.2935e-01,
         -4.1351e-01,  1.1783e+00,  1.1409e+00, -3.3838e-01,  1.7496e-03,
         -6.2131e-01, -1.3933e-01, -2.7580e-01, -1.1299e-02,  5.4990e-01,
          1.2495e-01,  2.1056e-01, -6.3784e-01,  2.6403e-01, -9.5280e-01,
          2.0366e-01, -6.5183e-01,  5.8354e-01,  1.9215e-01, -3.1671e-01,
         -1.1358e-02,  4.4731e-01, -5.3104e-01, -3.7771e-01, -3.8650e-02,
          4.8921e-01, -1.8500e-01, -1.6421e-01, -5.9464e-01,  5.8833e-01,
         -1.3744e-01, -8.8943e-02, -5.7526e-01],
        [-2.2408e-01,  2.9504e+00, -5.1480e-02, -1.8095e-01,  2.6611e-01,
         -5.2617e-01, -1.7789e-02, -1.1357e-01, -2.4177e-01,  3.1657e+00,
          3.1314e-01, -1.0864e-01,  9.3541e-02, -1.5536e+00,  3.2719e-01,
         -1.7695e-01, -1.4658e-01,  3.9957e+00,  3.5341e-01,  9.1926e-01,
         -2.7329e-01, -3.3632e+00,  4.0585e-01,  9.4419e-01, -1.1954e-01,
         -7.8069e-01, -6.0458e-02, -5.5419e-01, -2.8821e-01, -6.1170e-01,
         -1.7343e-02, -6.4701e-01, -1.3298e-02, -6.7740e-01,  1.5706e-01,
         -4.8508e-01, -1.0915e-01, -1.5539e+00,  1.6354e-01, -5.2849e-01,
          1.6156e-01, -1.0371e-01, -4.2052e-02, -8.9490e-01,  2.8817e-01,
         -3.3806e+00,  2.0947e-02, -8.6056e-01],
        [ 1.5719e+00,  6.3545e-01,  2.0844e-01,  1.3251e-01,  2.2512e-01,
         -9.2204e-01,  1.7747e-01,  1.4144e-01,  1.5477e+00,  7.1933e-01,
         -5.8354e-02,  3.4892e-01, -6.2327e-02, -8.8940e-01, -5.3341e-02,
          3.8650e-01,  1.3412e+00,  5.0224e-01,  3.5346e-01, -3.3848e-01,
         -9.9290e-02, -8.4927e-01,  4.3804e-01, -4.0248e-01,  1.1795e-01,
          8.7977e-01,  5.3185e-02,  1.2959e-01, -2.5646e-01, -9.7405e-01,
          3.8415e-02,  2.3550e-01,  3.0880e-01,  9.0914e-01,  3.5387e-01,
         -6.6193e-02, -4.7285e-03, -9.7557e-01,  3.6839e-01, -1.4172e-01,
          3.2061e-01,  6.1566e-01,  1.0333e-01, -4.8920e-01,  2.0450e-01,
         -8.1102e-01,  5.3782e-02, -5.0919e-01],
        [ 3.2836e-01, -2.8563e-01,  2.2812e-01,  1.1836e-01,  9.2409e-02,
         -5.3804e-01,  1.5104e-01,  1.7478e-01,  4.3276e-01, -3.0453e-01,
          1.0840e-01, -2.2021e-01, -2.5979e-01, -9.8092e-01,  1.3754e-01,
         -2.5767e-01,  4.7471e-01, -9.7168e-02,  4.2282e-02,  5.0441e-01,
         -6.8413e-01, -1.5598e+00,  1.0392e-01,  5.1436e-01,  4.1391e-01,
          4.4270e-01, -5.4718e-01, -4.0185e-01, -2.9545e-02, -5.6208e-01,
         -5.6269e-01, -3.9666e-01,  6.1053e-01,  3.4582e-01, -1.5705e-01,
         -9.3995e-01,  2.5777e-01, -9.1018e-01, -1.2183e-01, -9.3199e-01,
          6.4670e-01,  5.4991e-02, -1.2762e-01, -4.3313e-01,  7.4839e-01,
         -1.5116e+00, -7.8380e-02, -3.6887e-01],
        [ 1.0085e+00,  9.1577e-02,  3.0227e-01, -4.2076e-01, -9.8707e-01,
         -2.3639e-01,  2.5651e-01, -4.2810e-01,  1.0367e+00,  1.4332e+00,
          8.1957e-02, -4.3459e-01, -1.2857e+00, -3.4175e-01,  1.1213e-01,
         -4.3138e-01,  7.9599e-01,  1.6850e+00, -1.4230e-01, -3.3290e-01,
         -1.5813e+00, -6.4708e-01, -8.6164e-02, -3.3402e-01,  5.4253e-01,
          3.6533e+00,  7.3035e-02, -3.5496e-01,  9.4443e-01, -2.8989e-01,
          1.3838e-01, -3.2494e-01,  4.4795e-01,  3.3794e+00,  1.7371e-01,
         -4.0955e-01,  1.3034e+00, -4.3431e-01,  9.0545e-02, -5.0513e-01,
          2.4468e-01,  2.2914e+00, -2.1877e-01, -8.3292e-01,  1.6249e+00,
         -5.8132e-01, -3.0210e-01, -8.4412e-01],
        [ 5.3237e-01, -3.2691e-01, -7.2038e-02, -2.9114e-01,  1.0281e-01,
         -6.1111e-01, -9.3051e-03, -2.3767e-01,  4.8607e-01, -5.0570e-01,
         -6.6186e-02, -2.5980e-01,  1.7043e-01, -2.9424e-01, -5.4025e-02,
         -3.4640e-01,  5.7928e-01, -2.7587e-01, -1.0501e-01,  4.3719e-01,
         -6.4781e-02, -1.4244e-01, -3.2229e-02,  4.1131e-01,  3.7445e-01,
          3.0558e-01, -1.1276e-01, -1.4726e-01, -1.4025e-01, -5.5574e-01,
         -1.4183e-01, -1.7053e-01,  2.6204e-01,  1.6750e-02, -1.7150e-02,
          1.0346e-01, -1.7617e-01, -3.1960e-01, -6.7112e-02,  7.7093e-02,
          3.7920e-01, -7.4865e-02, -8.7867e-03, -3.2942e-02,  1.0718e-01,
         -1.6915e-01, -2.1798e-02, -6.2781e-03],
        [ 1.7360e+00,  5.1277e-01, -1.0916e-01, -1.5111e-01, -1.2471e-01,
          1.1724e+00, -3.4323e-02, -1.2099e-01,  1.7379e+00, -8.0747e-01,
         -1.0609e-02, -8.9771e-02,  2.1374e-01,  1.5680e+00,  7.8243e-03,
         -9.2827e-02,  1.5110e+00, -1.0059e+00,  1.0638e-01, -1.5274e-01,
          4.3129e-01,  1.6459e+00,  5.5042e-02, -1.5163e-01, -5.4815e-02,
         -1.3073e+00, -7.3072e-02, -9.1479e-02,  1.3066e-01,  1.1787e+00,
          1.5980e-02, -1.7715e-01, -2.2814e-02, -1.1516e+00, -9.3234e-02,
          4.3361e-01, -1.9903e-01,  1.5629e+00, -2.2858e-02,  3.6875e-01,
         -7.6613e-02, -9.2598e-01, -1.6260e-01,  9.1524e-01, -4.3256e-01,
          1.6840e+00, -1.0768e-01,  9.2813e-01],
        [ 8.8413e-01, -1.4104e+00,  2.5494e-01, -1.8343e-01, -2.1888e-01,
         -8.5375e-01,  2.4595e-01, -1.7444e-01,  4.4934e-01, -1.0374e+00,
         -2.4093e-01,  3.0738e-01, -5.7232e-02, -8.3609e-01, -2.8968e-01,
          3.5653e-01,  4.9997e-01, -4.2036e-01,  2.2657e-01,  4.1479e-01,
          1.4291e-01, -7.4100e-01,  2.6565e-01,  3.9854e-01,  5.4223e-01,
         -5.6938e-01, -3.4339e-01, -3.2509e-01,  9.9214e-02, -8.6476e-01,
         -3.6640e-01, -2.6156e-01,  4.4125e-01, -5.2900e-01, -3.5649e-01,
         -3.2328e-01,  1.0650e-01, -8.0401e-01, -3.7537e-01, -3.0177e-01,
          2.2531e-01, -1.2753e-01, -2.0890e-01,  1.0445e+00, -1.7429e-01,
         -7.3238e-01, -1.1504e-01,  9.9309e-01],
        [ 4.6731e-01,  4.5521e+00, -6.4768e-02, -3.5825e-01, -5.4902e-01,
          1.0794e+00, -5.7854e-02, -2.7877e-01,  4.8936e-01,  4.2899e+00,
          1.2426e-02, -6.1649e-01, -5.0801e-01,  5.6284e-01, -1.8414e-02,
         -6.1029e-01,  3.1824e-01,  3.0004e+00,  1.4250e-01, -1.4749e+00,
         -9.4363e-02,  2.1446e-02,  5.4732e-02, -1.4950e+00,  3.3403e-01,
          3.1211e+00,  8.7848e-03,  9.5621e-02,  5.6946e-01,  1.1043e+00,
         -2.7160e-02,  1.9103e-01,  3.7162e-01,  3.2741e+00,  9.5456e-02,
          4.0875e-01,  5.0313e-01,  5.6163e-01,  4.3066e-02,  4.1847e-01,
          3.1907e-01,  2.9250e+00,  1.0020e-01, -3.0107e-01,  1.4711e-01,
          4.1318e-02,  6.6644e-02, -2.1679e-01],
        [-6.2054e-01,  1.0514e-01, -1.8857e-01, -2.7582e-01, -2.0751e-01,
          2.0817e-01, -1.5012e-01, -2.6848e-01, -4.4449e-01,  1.9565e-01,
         -7.0670e-02, -3.7485e-01, -2.8491e-01, -1.4467e+00, -3.6988e-02,
         -3.0650e-01, -5.6942e-01,  1.8844e-01, -9.8538e-02, -2.9584e-01,
         -1.9103e-01, -4.5041e+00, -8.4675e-02, -2.9595e-01, -5.4834e-01,
          1.7778e-01,  4.8795e-03, -5.3874e-01,  1.6615e-01,  2.3036e-01,
         -2.4222e-02, -6.2395e-01, -4.9758e-01, -8.7255e-02, -3.2858e-02,
         -3.2479e-01,  2.5275e-01, -1.5031e+00, -1.3401e-01, -3.0511e-01,
         -3.9980e-01,  4.9146e-01,  1.2675e-02,  9.1742e-01,  2.7448e-01,
         -4.4960e+00, -9.7019e-04,  9.0355e-01],
        [ 3.5949e-01,  1.0418e+00,  2.9172e-02, -2.9311e-01, -4.5639e-01,
         -1.5687e+00,  1.2907e-02, -2.2665e-01,  3.7325e-01,  1.0696e+00,
         -1.2153e-01,  1.0887e-01, -3.0697e-01, -1.4627e+00, -6.6065e-02,
          7.8046e-02,  2.0159e-01,  8.9404e-01, -1.0981e-01, -2.1450e-01,
         -5.9955e-03, -7.5725e-01, -1.2441e-01, -1.6229e-01,  1.5397e-01,
          1.2386e+00,  8.2692e-02,  3.5817e-02,  4.2938e-01, -1.5650e+00,
          9.0138e-02,  3.0942e-02,  2.9649e-01,  1.2473e+00,  6.1686e-02,
         -1.5989e-01,  3.0727e-01, -1.5422e+00,  6.2679e-02, -2.0908e-01,
          2.2476e-01,  7.6894e-01,  1.1583e-01, -5.4659e-01,  1.0771e-01,
         -7.2393e-01,  9.0957e-02, -5.5682e-01],
        [ 5.1312e-01,  1.2074e+00,  1.5889e-02, -3.4147e-01, -2.7038e-01,
          4.3439e-01,  1.0098e-01, -2.7319e-01,  5.3068e-01,  9.5512e-01,
         -1.2083e-02, -4.8606e-01,  8.9949e-01,  7.4788e-01,  2.4339e-02,
         -5.0291e-01,  7.2628e-01,  6.3486e-01,  1.8808e-01, -9.9404e-02,
          2.0996e+00,  1.4105e+00,  2.1069e-01, -7.0907e-02,  6.0881e-01,
         -2.2660e-01,  6.6883e-02, -3.6591e-01,  3.1163e-01,  3.9879e-01,
          4.9191e-02, -3.2746e-01,  6.3235e-01, -2.1430e-01,  9.2905e-02,
         -3.9923e-01, -9.2354e-01,  8.0135e-01,  6.8566e-02, -3.5154e-01,
          8.0307e-01,  1.3065e-01,  2.0626e-01, -9.7014e-02, -2.0998e+00,
          1.3334e+00,  1.2944e-01, -1.5330e-01],
        [ 7.0265e-01, -5.3703e-01,  3.5128e-02,  9.0855e-03,  2.1097e-01,
         -1.3256e+00,  4.0085e-02,  7.9211e-03,  6.4378e-01, -6.2596e-01,
          1.2210e-01, -4.1309e-01,  2.9159e-01, -1.6411e+00,  2.0599e-01,
         -4.2466e-01,  5.2210e-01, -7.1521e-01, -1.5312e-01, -1.2495e-02,
          4.8176e-01, -1.6062e+00, -7.8765e-02, -9.5275e-03, -8.6515e-02,
          7.5018e-01, -6.0494e-02, -3.7200e-01, -1.9410e-01, -1.3737e+00,
          3.2509e-02, -3.7082e-01, -1.2385e-01,  7.4171e-01, -6.3918e-02,
         -2.7584e-01, -2.3474e-01, -1.6475e+00, -1.7121e-02, -2.1983e-01,
         -2.2105e-01,  7.1516e-01, -6.9249e-02,  4.7021e-01, -4.6216e-01,
         -1.5593e+00,  9.6865e-03,  5.0027e-01],
        [ 6.1418e-01, -3.0983e-01, -1.0067e-01,  6.8009e-02, -7.2465e-01,
         -1.3734e+00, -9.3359e-02,  1.0777e-01,  4.6317e-01, -3.6854e-02,
         -4.1816e-01,  2.8702e-02, -3.2120e-01, -1.6473e+00, -3.8918e-01,
          3.2822e-03,  3.2056e-01, -7.4817e-02, -2.1788e-01,  3.7895e-01,
         -1.0410e-01, -1.7492e+00, -1.2467e-01,  3.9931e-01, -1.9178e-01,
          3.6635e+00,  4.4791e-02, -3.1893e-01,  6.4942e-01, -1.3276e+00,
          8.9941e-03, -3.1475e-01, -9.0099e-02,  3.7588e+00, -2.2875e-02,
         -3.7839e-01,  4.2403e-01, -1.6509e+00, -9.1515e-02, -2.7882e-01,
          6.4171e-02,  3.5734e+00, -3.2888e-01, -3.9055e-01,  2.2762e-02,
         -1.7333e+00, -2.8878e-01, -3.7198e-01],
        [ 1.8885e-01,  1.1654e+00, -1.8274e-01,  8.3710e-02,  7.6950e-01,
         -1.9505e+00, -1.7960e-01,  8.0847e-02,  5.3409e-02,  9.9133e-01,
         -1.1400e-01,  1.8020e-01,  9.3195e-01, -2.3454e+00, -1.0460e-01,
          1.7331e-01, -6.6198e-02,  6.8994e-01, -1.7493e-01,  3.2701e-01,
          3.7507e-01, -8.7094e-01, -2.3567e-01,  3.2691e-01, -1.0403e-01,
          2.7254e+00,  9.5135e-02,  7.6886e-01, -6.7946e-01, -1.9806e+00,
          8.9071e-02,  6.8599e-01, -1.7403e-01,  3.5245e+00,  5.2811e-01,
          7.5710e-01, -8.7039e-01, -2.3330e+00,  4.7578e-01,  7.4840e-01,
         -3.1768e-01,  1.7282e+00,  1.5308e-01, -1.3585e+00, -3.8249e-01,
         -7.9816e-01,  2.2950e-01, -1.3195e+00],
        [ 2.5793e-01,  1.4932e-01,  5.7905e-02, -4.6718e-02,  4.3015e-01,
         -1.9217e+00,  4.7235e-02, -9.2325e-02,  2.1646e-01, -1.8655e-01,
          1.5807e-01, -2.5331e-01,  2.9204e-01, -1.4402e+00,  1.1444e-01,
         -1.5801e-01,  1.0732e-01, -3.2690e-01,  8.3247e-02, -1.2310e-01,
         -4.6686e-01,  1.1533e+00,  5.5059e-02, -1.8735e-02,  1.1814e-01,
          4.5706e-01, -2.1114e-03,  1.9654e+00, -5.0379e-01, -1.9323e+00,
         -8.6731e-04,  1.9045e+00,  1.8463e-01,  8.9689e-01,  3.4139e-02,
          1.7490e-01, -2.1470e-01, -1.3281e+00,  7.7094e-02,  2.3768e-01,
          9.9737e-02, -6.4715e-01,  4.9969e-01, -2.7899e+00,  4.3186e-01,
          1.2505e+00,  4.2162e-01, -2.7258e+00],
        [ 5.0756e-01,  9.5287e-02, -1.6148e-01, -3.6492e-02, -4.2784e-01,
         -1.3797e+00, -2.0520e-01, -2.4684e-02,  3.2847e-01, -3.0623e-03,
          1.0123e-01,  8.3989e-01,  2.0595e-01, -1.0874e+00,  2.8302e-03,
          8.4463e-01,  1.9818e-01, -6.3706e-02,  2.7038e-01,  1.7009e-02,
          7.6478e-01, -1.0860e+00,  2.2420e-01, -3.2018e-03,  3.8170e-01,
         -4.0310e-01, -9.8473e-02,  5.7483e-01,  3.7342e-01, -1.4348e+00,
         -1.3364e-01,  6.6018e-01,  3.4549e-01, -4.8418e-01,  2.0550e-03,
         -1.3344e-01, -1.0537e-01, -1.1277e+00,  1.2932e-02, -7.7489e-02,
          1.8579e-01, -6.0278e-01,  8.2658e-02, -6.3498e-01, -7.2226e-01,
         -1.0860e+00,  1.1033e-01, -6.2845e-01],
        [ 2.5585e-01,  1.1901e-01, -2.3996e-02, -3.0691e-01, -3.7398e-01,
         -1.3582e+00, -3.0736e-02, -3.7060e-01,  1.4788e-01, -1.8379e-01,
         -3.8352e-01,  2.2875e-01, -3.5586e-01, -1.0197e+00, -2.6619e-01,
          1.6806e-01,  8.5857e-02, -7.3906e-01,  5.3823e-02, -1.1521e-01,
         -3.3690e-01, -9.9401e-01,  7.6669e-02, -9.3192e-02,  6.2660e-01,
          1.5158e+00,  8.7452e-02,  2.2287e-01,  3.3994e-01, -1.3415e+00,
          3.9604e-02,  2.4378e-01,  3.8383e-01,  1.3803e+00, -3.7533e-01,
         -5.5320e-02,  3.7724e-01, -1.0012e+00, -3.6271e-01,  2.9238e-02,
          5.5847e-01,  9.9006e-01,  3.6662e-01, -1.4585e-01,  3.7034e-01,
         -9.3325e-01,  3.6206e-01, -8.3777e-02],
        [ 5.3055e-01,  9.1535e-01, -7.8227e-02,  2.2401e-01,  3.5294e-01,
         -4.3501e-01, -1.3744e-01,  1.8168e-01,  5.7420e-01,  7.7295e-01,
         -6.7525e-02, -1.1866e-01,  9.1399e-01, -6.1173e-01, -1.5603e-01,
         -6.4065e-02,  6.9778e-01,  7.1689e-01, -4.2149e-02, -1.5172e-01,
          1.7746e+00, -1.6224e+00, -9.5691e-02, -2.2629e-01,  9.4428e-01,
          1.7427e-01, -7.1870e-02, -1.6675e-01, -3.1414e-01, -5.4747e-01,
         -1.0754e-01, -2.0806e-01,  1.0249e+00,  9.6532e-02,  3.5162e-01,
         -3.7855e-01, -9.1950e-01, -5.9216e-01,  3.0795e-01, -3.5998e-01,
          1.3748e+00,  1.5129e+00,  2.5026e-01,  1.0801e-01, -1.7419e+00,
         -1.6323e+00,  2.6455e-01,  1.9395e-01],
        [ 8.8566e-01,  7.9530e-01, -8.8887e-02, -2.0179e-01,  6.7918e-01,
         -5.9720e-01, -2.7708e-02, -2.3557e-01,  9.8256e-01,  9.0190e-01,
         -1.6952e-01,  2.3631e-02,  1.8170e-01, -5.9315e-01, -1.6537e-01,
          1.1166e-02,  6.9893e-01,  6.9373e-01, -3.8581e-01, -2.4786e-01,
         -2.3682e-01, -3.2376e-01, -4.5523e-01, -1.7568e-01,  5.6618e-02,
          1.7664e+00,  9.9193e-02, -3.2042e-02, -7.4390e-01, -6.4664e-01,
          6.9017e-02, -3.0564e-02,  2.6180e-01,  1.8776e+00, -2.6189e-01,
         -4.1347e-02, -2.2364e-01, -6.2623e-01, -2.0015e-01,  4.7812e-02,
          1.2997e-01,  1.2369e+00, -2.1064e-02, -4.3254e-01,  2.0785e-01,
         -3.2933e-01, -2.7949e-02, -4.5898e-01],
        [ 4.9956e-01,  2.3087e+00, -2.0610e-02, -1.9883e-02, -2.3471e-02,
          1.5252e-01, -4.2933e-02, -2.6981e-02,  4.4134e-01,  2.2150e+00,
         -1.2885e-01,  1.6381e-01,  7.0879e-01, -8.9992e-02, -2.3138e-01,
          2.0992e-01,  6.7515e-01,  1.9857e+00,  3.6665e-01, -5.1074e-01,
          1.3523e+00, -3.8360e-01,  3.8807e-01, -5.2532e-01,  6.2298e-01,
         -5.1320e-01,  4.0162e-02, -1.3232e-01,  2.0468e-02,  1.1826e-01,
         -1.9092e-03, -5.5327e-02,  6.0000e-01, -1.9778e-01, -5.8676e-01,
         -3.7478e-02, -6.7224e-01, -1.8627e-01, -5.0469e-01, -8.8434e-02,
          4.6244e-01,  7.2403e-02, -1.6576e-01,  4.4190e-02, -1.3526e+00,
         -4.3728e-01, -1.7452e-01,  8.4948e-02],
        [ 2.2002e-01,  5.2071e-01, -1.7043e-01,  2.8477e-02,  4.7333e-01,
          4.0394e-01, -1.0790e-01,  3.2272e-02,  3.6163e-01,  7.0829e-01,
         -8.7221e-02, -8.4934e-02,  2.4013e-01,  2.8855e-03, -8.0532e-02,
         -3.8268e-02,  3.4491e-01,  6.6132e-01, -9.0361e-02, -2.5290e-01,
         -8.7475e-02, -3.7382e-01, -2.7386e-02, -2.9589e-01,  1.6899e-01,
         -2.2703e-01, -1.2383e-01,  1.6775e-01, -4.9628e-01,  3.9051e-01,
         -8.6684e-02,  1.8223e-01,  2.0735e-01,  5.9374e-02, -2.0759e-01,
          1.6298e-01, -1.3518e-01,  2.3254e-02, -2.0765e-01,  1.0475e-01,
          2.5312e-01,  1.2582e-01,  2.1262e-01,  1.8556e-01,  1.1472e-01,
         -3.8078e-01,  1.5002e-01,  2.8583e-01],
        [ 3.2157e-01,  1.0123e+00,  7.2829e-02, -1.0131e-01, -5.5990e-01,
         -1.7279e-01, -3.8930e-02, -1.2982e-01,  4.3644e-01,  8.8419e-01,
         -1.1508e-02, -2.2821e-01,  1.8967e-01, -5.8668e-01,  1.7454e-02,
         -1.8258e-01,  5.4463e-01,  4.9072e-01,  8.5372e-02, -7.5232e-01,
          9.3540e-01, -9.3875e-01,  1.4126e-01, -6.8885e-01,  3.3378e-01,
         -5.4418e-02, -4.5837e-01,  1.8796e-01,  5.6718e-01, -1.9730e-01,
         -3.7684e-01,  1.2346e-01,  3.3656e-01,  2.3610e-01, -1.4021e-02,
          2.8931e-01, -1.7754e-01, -4.9404e-01,  4.6990e-02,  2.5701e-01,
          2.3448e-01,  1.4130e-01,  4.5141e-01,  1.8260e-01, -9.8820e-01,
         -8.4282e-01,  4.1294e-01,  2.1986e-01],
        [ 9.4242e-01,  2.6108e-02, -9.9195e-03, -8.7622e-01,  3.3103e-01,
         -1.0414e+00, -2.5711e-02, -7.7849e-01,  5.8229e-01, -4.7998e-02,
          1.0021e-01,  5.4081e-01, -2.2184e-01, -9.4572e-01,  1.4066e-01,
          5.5059e-01,  2.9020e-01, -1.1453e-01, -3.1568e-02,  3.5072e-01,
         -3.8003e-01, -1.1174e+00, -7.6297e-02,  3.6614e-01,  1.4406e+00,
         -1.0540e+00,  6.3853e-02, -2.6916e-02, -3.0600e-01, -9.8809e-01,
          5.7644e-03, -5.1511e-02,  1.2666e+00, -1.4326e+00,  3.8808e-02,
          1.6709e-01,  1.9422e-01, -1.0288e+00,  7.8387e-02,  1.1543e-01,
          6.8278e-01, -1.2781e+00, -6.7007e-02,  7.4247e-02,  4.4106e-01,
         -1.0178e+00, -6.5932e-02,  8.1307e-02],
        [ 5.8521e-01, -1.2169e-01, -1.7171e-01,  5.0100e-01, -6.3984e-01,
         -7.8051e-02, -9.7374e-02,  5.6506e-01,  5.2337e-01, -1.0466e-01,
         -1.5826e-01,  3.4270e-01,  4.1153e-02,  2.0950e-01, -2.2107e-01,
          3.0995e-01,  6.4677e-01,  1.4163e-01, -3.6274e-02, -7.5957e-03,
          6.2582e-01,  4.5613e-01,  2.0091e-02, -1.6009e-02,  9.2597e-01,
          1.6407e+00, -1.0061e-03, -5.6575e-01,  5.8552e-01, -1.8065e-01,
         -5.8615e-02, -4.7664e-01,  8.3207e-01,  1.2663e+00, -2.0455e-01,
         -5.6383e-01, -4.9319e-03,  1.5033e-01, -2.7091e-01, -5.2737e-01,
          9.4422e-01,  8.6481e-01,  1.2584e-01, -1.1392e+00, -6.5486e-01,
          4.9701e-01,  1.0086e-01, -1.1933e+00],
        [ 5.6231e-01,  2.2071e+00,  3.5412e-02,  6.3145e-02, -1.5383e+00,
         -6.2936e-02,  2.7082e-02,  6.8650e-02,  4.9876e-01,  2.6408e+00,
         -5.7647e-02,  7.9034e-02, -3.7580e-01,  3.3882e-01, -7.3444e-02,
          1.1488e-01,  3.8422e-01,  2.5028e+00, -6.7240e-02,  8.5396e-01,
          8.0823e-01,  5.7667e-01, -2.3456e-02,  8.8692e-01,  5.8918e-01,
         -3.3929e+00,  2.2229e-02, -7.4385e-01,  1.5272e+00,  3.7003e-03,
          1.2520e-03, -7.0420e-01,  3.7490e-01, -3.4490e+00, -9.9698e-02,
         -6.8211e-01,  4.1559e-01,  3.7770e-01, -6.2450e-02, -6.7880e-01,
          3.9683e-01, -3.4640e+00,  9.8677e-02, -1.8799e+00, -8.0340e-01,
          5.9476e-01,  1.8604e-02, -1.8094e+00],
        [ 2.1087e+00, -8.6784e-01,  1.8292e-01, -6.7482e-01,  3.9314e-01,
         -6.4835e-01,  2.1323e-01, -6.4627e-01,  1.7094e+00, -1.0056e+00,
         -2.8486e-02, -1.3171e-01,  4.8241e-01, -7.3209e-01,  6.3330e-03,
         -1.2000e-01,  1.2418e+00, -5.6825e-01, -2.2925e-01,  7.7844e-01,
          5.2501e-01, -6.4843e-01, -2.3358e-01,  6.9334e-01, -5.4153e-01,
          1.3771e-01, -2.3119e-02,  5.0986e-01, -3.8696e-01, -6.7782e-01,
         -1.0144e-01,  4.9836e-01, -3.3558e-01,  4.7560e-01,  1.4165e-01,
          3.3684e-01, -4.3064e-01, -7.2148e-01,  1.5677e-01,  3.5134e-01,
         -3.8811e-01,  7.9222e-01, -3.9902e-02,  5.2152e-01, -4.9886e-01,
         -7.2142e-01, -7.3857e-02,  4.2515e-01],
        [ 5.3875e-01,  8.7696e-01, -1.2166e-02, -3.1867e-02,  1.0652e+00,
         -1.2889e+00,  3.0291e-02,  1.4184e-02,  4.8123e-01,  9.6490e-01,
          2.7367e-02,  3.7899e-02,  6.8760e-01, -1.0198e+00, -2.3284e-02,
         -2.1440e-02,  5.3392e-01,  1.3146e+00, -4.8583e-02,  4.4722e-01,
          2.5519e-01, -6.2978e-01,  1.2187e-02,  5.0174e-01, -2.0407e-01,
         -3.0066e+00, -4.9187e-02, -5.4628e-01, -1.1373e+00, -1.2543e+00,
         -4.9424e-02, -5.5790e-01, -1.9617e-01, -2.6075e+00, -9.0631e-02,
         -1.4331e+00, -7.8372e-01, -1.0292e+00, -1.6662e-02, -1.3894e+00,
         -2.5567e-01, -2.3559e+00,  9.6074e-02, -1.6905e+00, -2.6854e-01,
         -6.4810e-01,  1.8722e-01, -1.6753e+00],
        [ 3.8267e-01,  2.1780e+00,  1.6790e-01, -1.6055e-01,  5.0696e-01,
         -7.1580e-01,  1.0724e-01, -1.4487e-01,  4.2033e-01,  2.0208e+00,
         -3.1640e-01, -3.0195e-01,  4.7513e-01, -6.6259e-01, -2.7738e-01,
         -3.3532e-01,  4.8184e-01,  1.4789e+00, -4.7240e-01, -8.0412e-01,
          3.5875e-01, -5.7174e-01, -5.0709e-01, -8.1205e-01, -2.4234e-02,
         -7.8197e-01, -3.5022e-02, -1.0234e+00, -4.9916e-01, -7.4067e-01,
         -2.0579e-02, -1.0792e+00,  9.7694e-02, -8.7990e-01, -2.0274e-01,
         -7.9898e-01, -4.5711e-01, -7.1912e-01, -1.6980e-01, -8.2986e-01,
          9.4152e-02, -9.4423e-01, -7.7787e-03,  6.5405e-01, -3.1404e-01,
         -5.4711e-01,  7.3056e-02,  7.6178e-01],
        [ 7.8981e-01, -1.7218e-01, -2.4867e-01,  1.6283e-01,  4.5685e-01,
         -1.1859e+00, -3.1625e-01,  2.6631e-01,  5.4328e-01, -3.7890e-03,
         -2.5530e-01,  1.0859e-01,  1.6073e-01, -1.2143e+00, -3.1634e-01,
          8.7237e-02,  5.2762e-01,  1.3980e-01, -2.2525e-01,  3.2816e-01,
         -2.9580e-01, -8.8953e-01, -2.6679e-01,  2.8893e-01,  2.3381e-01,
          6.0286e-01,  3.3551e-01,  4.6448e-01, -3.5058e-01, -1.1371e+00,
          2.6041e-01,  4.1902e-01,  3.5543e-01,  6.4772e-01,  2.2482e-01,
          3.2612e-01, -1.2092e-01, -1.2144e+00,  2.0618e-01,  3.3178e-01,
          5.0304e-01,  6.5217e-01,  6.7909e-02, -1.2378e-01,  2.4762e-01,
         -8.3117e-01, -1.7487e-02, -1.6317e-01],
        [ 1.1278e+00,  3.7107e-01,  1.6509e-01, -7.2566e-01,  2.9821e-01,
         -1.6705e-01,  1.9288e-01, -6.7872e-01,  1.3007e+00,  1.3269e-01,
          2.1125e-01, -7.1550e-01,  1.6402e-01,  1.9436e-01,  2.1914e-01,
         -7.7444e-01,  1.3768e+00, -1.8445e-01,  3.7357e-01, -6.6324e-01,
          4.5040e-02,  5.2360e-01,  3.4766e-01, -5.6455e-01,  5.3691e-01,
          9.9169e-01, -1.9444e-01, -6.8094e-02, -2.7673e-01, -5.6277e-02,
         -1.8221e-01, -8.4865e-02,  5.0341e-01,  6.8491e-01, -3.3268e-02,
         -6.7887e-01, -1.5409e-01,  2.6963e-01, -2.7855e-02, -6.4001e-01,
          4.5558e-01,  9.2317e-02, -2.4897e-01, -4.9182e-01, -2.9710e-02,
          5.3372e-01, -2.4711e-01, -5.5151e-01],
        [ 3.0323e-02, -2.2106e+00,  1.2103e-01,  9.0603e-01, -3.4286e-01,
         -6.4776e-01,  1.5451e-01,  9.6736e-01,  4.0792e-02, -2.3634e+00,
         -4.8686e-02,  7.9615e-01, -1.0087e-02, -6.4522e-01, -2.8918e-02,
          7.8311e-01,  1.0764e-01, -1.5075e+00, -1.8507e-01,  1.6798e+00,
          2.4911e-01, -6.7097e-01, -9.9370e-02,  1.6624e+00,  7.6777e-01,
         -5.0478e-01,  1.0850e-01, -5.3601e-01,  3.3284e-01, -5.9952e-01,
          1.1313e-01, -5.9262e-01,  6.4869e-01, -8.5919e-01, -1.5753e-01,
         -7.7999e-01,  7.7579e-02, -6.3730e-01, -7.9138e-02, -7.7912e-01,
          6.3128e-01, -1.1839e+00, -9.0291e-03, -2.2985e-01, -1.5645e-01,
         -7.2435e-01, -2.5367e-02, -1.9197e-01],
        [ 4.3251e-01,  1.0688e+00, -2.4090e-01,  1.7698e-01,  2.2287e-01,
         -1.2363e-01, -2.4812e-01,  1.4265e-01,  5.0638e-01,  9.0894e-01,
          5.7720e-01,  4.3113e-02,  3.5406e-01, -3.8016e-01,  5.0872e-01,
          6.4167e-02,  4.1726e-01,  7.6625e-01,  2.5537e-01, -4.0500e-02,
          3.6265e-01, -3.9586e-01,  2.8242e-01,  7.5667e-02,  4.7824e-01,
          9.2878e-01,  2.6542e-01,  5.8834e-02, -2.2245e-01, -8.6289e-02,
          2.4261e-01,  7.4064e-02,  3.6512e-01,  1.0315e+00, -1.4621e-01,
          4.1019e-02, -3.7723e-01, -4.3467e-01, -1.0819e-01, -1.8812e-02,
          4.6772e-01,  3.9372e-01,  1.9562e-01,  5.7176e-01, -2.8117e-01,
         -3.7424e-01,  2.5816e-01,  4.9612e-01],
        [ 1.5016e-02, -1.1171e+00, -7.5027e-02, -2.1972e-01,  1.0443e-01,
         -6.3111e-02,  7.7035e-03, -2.3921e-01, -1.2592e-01, -8.8815e-01,
          3.2704e-03, -1.1023e-01, -1.3542e-01, -1.7801e+00, -6.8948e-03,
         -1.0339e-01, -1.5396e-01, -5.3121e-01,  5.5940e-03, -3.1829e-03,
         -4.6827e-01, -4.6622e+00,  1.2258e-02,  1.4121e-02, -1.0009e+00,
          4.3077e+00, -1.5167e-02,  3.3170e-01, -1.8856e-01, -4.9387e-02,
         -9.7963e-02,  2.7837e-01, -1.1060e+00,  5.2263e+00, -6.7184e-02,
          5.2416e-01,  6.2458e-02, -1.8444e+00, -3.7217e-02,  4.5019e-01,
         -1.2069e+00,  5.5989e+00, -1.0933e-01,  6.1251e-01,  5.2432e-01,
         -4.6969e+00, -6.2629e-02,  5.9218e-01],
        [ 6.6031e-02,  2.2325e+00, -1.1759e-01,  2.4456e+00, -5.8255e-01,
         -1.8248e+00, -1.9057e-01,  2.4706e+00,  6.4290e-03,  2.5028e+00,
          9.2625e-02, -1.3781e-01, -2.5431e-01, -1.4816e+00,  1.0161e-01,
         -1.7863e-01, -4.6749e-02,  1.9751e-01,  2.7088e-01, -2.1345e+00,
          6.9167e-01,  2.1149e-01,  2.5566e-01, -2.2200e+00,  6.0593e-01,
          1.4968e-02,  1.8082e-01, -3.7433e-01,  6.0054e-01, -1.7766e+00,
          1.4318e-01, -3.9412e-01,  6.2947e-01,  7.8111e-02,  3.3340e-02,
         -9.8545e-02,  2.5626e-01, -1.4644e+00,  7.0051e-03, -1.4797e-01,
          4.6392e-01,  1.1729e-01, -1.2349e-02, -6.7528e-01, -7.7805e-01,
          1.9650e-01, -5.2824e-02, -7.8656e-01],
        [ 8.7704e-01, -2.6585e-02,  5.0456e-02, -2.4211e-01,  3.9790e-01,
         -8.5563e-01,  5.6602e-02, -1.7619e-01,  9.8160e-01,  2.7820e-01,
          1.9190e-01,  1.0297e-01,  5.2403e-02, -8.9341e-01,  2.0234e-01,
          1.3376e-01,  7.5456e-01,  3.5354e-01, -1.2252e-01,  2.1757e-01,
         -1.4430e-01, -7.2941e-01, -1.4573e-01,  1.9611e-01,  1.0096e+00,
         -5.4544e-01,  2.3998e-01, -1.4669e-01, -3.6010e-01, -8.6712e-01,
          2.3640e-01, -1.0631e-01,  9.3468e-01, -6.2045e-01,  2.6506e-01,
          7.2206e-01, -9.1541e-02, -9.8174e-01,  3.3640e-01,  6.8826e-01,
          8.9895e-01, -4.2893e-01,  3.5970e-02,  2.1996e-01,  8.3368e-02,
         -6.8458e-01,  5.2450e-02,  1.9479e-01],
        [ 4.3930e-01, -9.6034e-01, -5.5184e-03,  2.4576e-01, -2.1198e+00,
          1.4624e+00,  2.1148e-02,  1.8561e-01,  2.9701e-01, -6.0428e-01,
         -1.8971e-03,  6.5124e-01,  1.7004e-01,  3.2112e-01,  1.0709e-02,
          6.9210e-01,  8.9935e-02, -4.6288e-01, -2.8733e-02,  9.5417e-01,
          2.0259e+00, -1.0031e+00, -4.6416e-02,  8.8249e-01, -4.0886e-01,
          1.3794e+00,  3.7013e-02,  5.3262e-02,  2.1726e+00,  1.4117e+00,
          4.5481e-02, -9.3590e-03, -3.6526e-01,  1.3605e+00, -2.8055e-02,
         -8.2900e-02, -1.9259e-01,  3.2935e-01, -6.0378e-02, -6.0339e-02,
         -4.1225e-01,  1.8114e+00, -5.1324e-02,  1.7955e-01, -2.1230e+00,
         -9.4044e-01, -9.7017e-02,  1.8659e-01],
        [ 8.5444e-01,  5.1114e-01, -1.3111e-01,  1.1731e+00,  2.4375e-01,
         -9.4466e-01, -1.4896e-01,  1.2050e+00,  9.6680e-01,  1.0151e+00,
          4.5746e-02,  7.6840e-01, -9.9094e-02, -3.8717e-01,  6.6004e-02,
          8.1959e-01,  1.1171e+00,  1.3886e+00,  1.7278e-01,  5.2969e-01,
         -3.9191e-01,  5.8730e-02,  1.4946e-01,  4.2825e-01,  1.0844e+00,
         -3.6660e-03,  9.5329e-02, -5.1940e-01, -2.5861e-01, -9.2476e-01,
          9.6278e-02, -5.2678e-01,  1.1759e+00, -7.4443e-01,  2.4426e-02,
         -9.0126e-01,  1.0956e-01, -3.4665e-01,  1.3094e-02, -8.4997e-01,
          1.4760e+00, -1.2858e+00,  1.9100e-02,  1.0010e+00,  3.9431e-01,
          1.0595e-01,  8.7424e-02,  1.0164e+00],
        [ 3.0303e-01, -3.3263e+00, -2.8834e-02, -2.3941e-01,  4.3261e-01,
          1.5274e-01, -8.4902e-02, -2.4711e-01,  3.1493e-01, -2.3555e+00,
         -7.0891e-02, -7.1516e-01, -5.1816e-01, -4.8191e-01,  2.6511e-03,
         -6.7606e-01,  2.4199e-01, -2.3138e+00, -2.7028e-01, -1.2125e+00,
         -1.4415e+00, -1.4429e+00, -2.3901e-01, -1.2351e+00,  1.5158e-02,
          2.1735e+00, -1.7625e-02,  4.2414e-01, -3.5657e-01,  1.0336e-01,
         -3.4497e-02,  3.9250e-01,  1.3570e-01,  2.0898e+00, -1.5091e-01,
          3.2675e-02,  5.1546e-01, -4.3112e-01, -1.4931e-01,  8.0522e-02,
          1.6986e-01,  1.8519e+00, -8.5932e-02,  3.4013e-01,  1.4577e+00,
         -1.4194e+00, -1.4282e-01,  3.3302e-01],
        [ 9.0664e-01, -1.3342e-01,  4.0751e-02, -2.1327e-01,  6.0579e-01,
         -2.7157e-01,  6.0632e-02, -2.0808e-01,  1.4060e+00, -1.3234e+00,
          6.3267e-01,  1.0847e-01,  4.3302e-01, -5.0543e-01,  5.9541e-01,
          6.0883e-02,  1.5455e+00, -1.3043e+00,  4.1482e-03,  3.2008e-01,
         -6.2138e-02, -8.0564e-01,  7.8126e-02,  2.9017e-01, -6.7833e-01,
         -6.8301e-01,  1.3682e-01, -3.1768e-01, -6.9829e-01, -2.6049e-01,
          1.1335e-01, -3.6778e-01, -6.2498e-01, -7.9592e-01,  1.1106e-01,
          1.7936e-01, -4.0771e-01, -4.9775e-01,  1.4611e-01,  1.4977e-01,
         -5.6867e-01, -6.1860e-01, -2.0217e-02,  5.8201e-01,  8.6904e-02,
         -7.5060e-01, -5.0733e-02,  5.4761e-01],
        [ 6.2778e-01, -3.5866e+00,  3.6043e-02, -1.3289e-02, -2.1383e-01,
         -7.3892e-01, -2.0692e-02, -4.7281e-03,  4.8002e-01, -4.1052e+00,
         -4.9092e-03, -1.2794e-01, -4.3018e-01,  6.5455e-01, -5.7633e-02,
         -1.0918e-01,  8.4557e-01, -4.1833e+00, -1.5994e-01,  7.0371e-01,
         -6.2646e-02,  1.8710e+00, -2.4991e-01,  6.7263e-01,  2.8213e-01,
         -2.6284e+00, -1.5276e-02, -3.7059e-01,  2.2203e-01, -7.6899e-01,
          1.1389e-03, -4.0657e-01,  2.7325e-01, -3.1088e+00, -9.4193e-02,
         -4.0687e-01,  3.3348e-01,  6.9375e-01, -9.1534e-02, -3.6993e-01,
          2.8301e-01, -3.3296e+00,  2.1565e-03,  1.3265e-01,  7.3333e-02,
          1.8934e+00, -1.0195e-01,  7.9014e-02],
        [ 4.2497e-01,  6.3102e-02, -1.7029e-01,  2.6838e-01, -1.4658e-01,
         -1.1809e+00, -1.9368e-01,  3.1894e-01,  1.5741e-02, -5.8095e-01,
          1.9335e-01,  1.5863e-01,  3.7549e-01, -1.8116e-01,  1.6322e-01,
          1.1623e-01, -1.4305e-01, -8.0462e-01, -4.4629e-01, -3.4474e-01,
          4.8093e-01,  4.7228e-01, -4.1253e-01, -3.7873e-01,  1.8800e+00,
          2.5458e+00,  5.4732e-02,  3.0884e-01,  3.9450e-02, -1.1577e+00,
          6.6286e-02,  2.6891e-01,  1.2686e+00,  1.7494e+00,  8.4082e-02,
         -4.2880e-01, -2.9962e-01, -1.1445e-01,  8.3588e-02, -4.2956e-01,
          6.9726e-01,  3.1517e-01, -8.0348e-02, -1.2845e+00, -5.0101e-01,
          4.6573e-01, -1.3142e-01, -1.3476e+00],
        [ 2.9055e-01,  3.1560e-01,  4.5392e-02,  3.4941e-02,  5.2632e-02,
         -7.5893e-01, -5.6575e-02, -6.4377e-04,  2.5810e-01,  5.4975e-02,
         -4.2813e-02,  1.8502e-02,  6.9701e-01,  1.5620e+00,  1.1350e-02,
         -3.9427e-02,  4.1563e-01, -4.6889e-01, -8.1396e-02, -9.5820e-02,
          1.3228e+00,  4.0465e+00, -8.3629e-02, -9.2377e-02,  5.2300e-01,
         -1.1801e+00, -2.4173e-02,  1.0693e-01, -1.2681e-02, -6.7799e-01,
         -3.2446e-02,  8.0588e-02,  7.1642e-01, -1.4799e+00,  4.3574e-02,
          2.1141e-01, -6.6204e-01,  1.5820e+00,  5.1288e-02,  1.6501e-01,
          8.6251e-01, -1.4268e+00,  8.5353e-02,  4.8794e-01, -1.3927e+00,
          4.0236e+00,  1.8245e-01,  4.4453e-01],
        [ 7.9934e-01,  2.6601e-01, -2.3890e-02,  5.1748e-01, -2.0382e-01,
         -1.0966e+00, -6.7978e-02,  4.0658e-01,  5.7609e-01,  8.2538e-01,
         -3.1848e-01,  4.7704e-01, -3.3546e-01, -7.8804e-01, -3.9429e-01,
          5.0935e-01,  6.0061e-01,  9.4350e-01,  7.2200e-02, -1.2116e-01,
         -5.2997e-01, -9.8041e-03,  1.0034e-01, -1.3893e-02,  9.2583e-01,
         -5.6634e-01, -7.8877e-02,  2.4129e-01,  1.8356e-01, -9.9039e-01,
         -8.6303e-02,  2.8614e-01,  8.4972e-01, -9.5798e-01,  1.5605e-02,
          8.0980e-01,  3.3506e-01, -6.8789e-01,  3.3614e-02,  8.4691e-01,
          6.2213e-01, -8.3547e-01, -2.6569e-01,  9.8017e-01,  5.1893e-01,
         -9.6933e-02, -3.6375e-01,  9.0068e-01],
        [ 2.2940e-01, -2.6694e+00,  1.7977e-01,  4.1353e-01,  4.8590e-04,
         -7.5278e-01,  8.2298e-02,  3.9075e-01,  9.1395e-02, -2.5779e+00,
         -3.7702e-02, -7.5891e-02, -6.1025e-01, -7.0319e-01, -1.9167e-02,
         -2.7322e-02,  7.5278e-02, -2.9609e+00,  2.0011e-02,  4.7175e-01,
         -9.1153e-01, -9.3498e-01, -4.1595e-03,  4.4233e-01,  8.5148e-01,
          1.7971e-01, -4.4103e-02, -1.0476e+00,  1.1647e-02, -8.1903e-01,
         -4.0035e-02, -1.0362e+00,  6.6027e-01, -1.8290e-01,  2.0967e-01,
         -1.0500e+00,  5.3794e-01, -6.6256e-01,  1.9716e-01, -1.0377e+00,
          6.4670e-01, -1.1879e+00, -2.2166e-01,  3.0229e-01,  9.7789e-01,
         -1.0031e+00, -3.3313e-01,  3.3122e-01],
        [ 7.2678e-01,  2.5050e-01,  4.8233e-02,  2.3520e-01, -6.7412e-02,
         -7.9876e-01, -4.0091e-03,  2.8924e-01,  9.4944e-01,  7.1316e-01,
         -1.3398e-01,  9.0647e-02, -6.3378e-02, -3.3967e-01, -1.0474e-01,
          7.3609e-02,  6.7789e-01,  6.9475e-01, -3.3675e-01,  8.7677e-02,
         -5.7293e-02,  3.0044e-02, -3.6788e-01,  3.5432e-02,  2.9519e-01,
         -4.9808e-01, -1.5698e-01,  6.6295e-01,  3.6147e-02, -7.8940e-01,
         -1.3617e-01,  6.9855e-01,  4.3085e-01, -2.8884e-01,  2.3153e-02,
          4.1420e-01,  4.1467e-02, -3.3679e-01,  2.7416e-02,  4.1867e-01,
          2.8797e-01, -1.3209e-01, -1.7186e-01,  7.4041e-02,  7.9700e-02,
          9.3408e-02, -2.5511e-01,  4.5041e-02],
        [ 5.3492e-01,  8.5579e-02, -1.3720e-02, -2.3081e-01, -2.5236e-01,
         -2.8318e-01, -4.3134e-02, -1.4915e-01,  5.9612e-01,  1.5908e-01,
         -2.4963e-04,  2.8155e-01,  9.6934e-02, -1.2386e+00, -3.0224e-02,
          3.8728e-01,  7.2514e-01,  5.9790e-01,  4.4560e-01,  8.2948e-01,
          5.4713e-01, -2.4204e+00,  5.1995e-01,  8.2009e-01, -6.1014e-01,
         -2.0532e-01, -1.3578e-01,  2.9221e-01,  2.0726e-01, -2.0509e-01,
         -1.1603e-01,  3.2808e-01, -3.0895e-01, -5.0891e-01,  1.4784e-01,
         -5.2302e-01, -1.6110e-01, -1.2469e+00,  8.8166e-02, -5.2561e-01,
         -1.2879e-02, -5.9910e-01,  2.3748e-01,  1.2338e+00, -5.1187e-01,
         -2.3345e+00,  2.8628e-01,  1.2079e+00],
        [ 1.6374e-01,  1.1995e+00,  3.2531e-02,  2.1473e-01,  2.1663e-01,
         -4.4422e-01, -5.9993e-02,  2.0476e-01,  1.8480e-01,  1.1133e+00,
         -1.0998e-03, -3.2972e-02,  4.8556e-02, -3.7879e-01,  2.0812e-02,
         -8.7849e-02,  3.4165e-01,  1.0576e+00, -6.4056e-02,  6.0762e-02,
         -1.1694e-01, -3.2591e-01, -9.3927e-02,  6.7278e-02,  4.4352e-01,
          3.0919e-03, -1.9789e-01,  1.2660e-01, -2.3093e-01, -4.1608e-01,
         -1.3225e-01,  1.6534e-01,  5.2142e-01,  8.7614e-02, -3.3086e-02,
         -1.2107e-01,  3.5698e-02, -3.2261e-01,  6.5099e-02, -1.1852e-01,
          5.9213e-01,  2.4832e-01,  3.0890e-02, -3.2945e-01,  1.1445e-01,
         -2.9638e-01,  9.6892e-02, -3.1032e-01],
        [ 3.2998e-01, -1.0360e-01,  3.6883e-02, -4.0744e-01, -1.2305e-01,
          3.3900e-01,  3.2175e-02, -4.0509e-01,  4.0225e-01, -2.3052e-01,
         -2.5495e-02, -3.8878e-01,  6.0111e-01,  1.3529e+00, -7.4146e-02,
         -4.4533e-01,  3.3432e-01, -1.0548e+00, -8.6359e-02, -4.1238e-01,
          9.6203e-01,  2.6869e+00, -3.3600e-02, -4.7508e-01,  1.0029e+00,
          1.7704e+00, -1.1128e-02,  5.0623e-02,  3.9505e-02,  3.7159e-01,
         -4.6146e-02, -6.5591e-03,  1.0779e+00,  2.0961e+00, -6.3705e-02,
          3.3756e-01, -5.5924e-01,  1.3031e+00, -7.1617e-02,  2.7283e-01,
          8.5724e-01,  1.7760e+00, -7.3421e-02,  3.7712e-01, -9.3090e-01,
          2.5971e+00,  4.4107e-02,  3.7579e-01],
        [-6.2872e-02, -2.1111e+00,  1.3160e-02,  3.7309e-01,  1.4197e+00,
          1.3060e-01, -3.3048e-02,  3.2984e-01,  1.2358e-01, -1.7843e+00,
          1.0391e-02,  3.2025e-01,  1.4720e-01,  3.8007e-01,  3.1735e-02,
          2.4221e-01,  3.7210e-02, -1.2427e+00,  1.8733e-01,  2.0319e+00,
         -1.2622e+00,  6.3671e-01,  1.7582e-01,  2.0091e+00,  1.0672e+00,
          1.5866e+00,  1.1844e-01,  6.0048e-01, -1.4829e+00,  2.0074e-01,
          1.9155e-01,  6.3679e-01,  1.2268e+00,  1.5389e+00, -1.3257e-01,
          1.4217e-01, -1.5073e-01,  3.4200e-01, -8.2701e-02,  1.8597e-01,
          1.2672e+00,  6.3762e-01,  1.9506e-02,  2.9035e-01,  1.3034e+00,
          6.9607e-01,  9.4536e-02,  2.0257e-01],
        [ 2.7359e-01,  3.1241e-01, -2.3464e-01,  4.0761e-01, -3.9145e-01,
         -1.0605e+00, -3.2901e-01,  4.0798e-01,  1.5198e-01,  2.4666e-01,
         -1.4407e-01, -5.4743e-01, -3.4446e-01, -1.0082e+00, -5.0472e-02,
         -4.9838e-01,  2.5770e-01,  2.9053e-02, -1.6712e-01, -4.9030e-01,
         -4.3150e-01, -1.2585e+00, -2.4178e-01, -5.2149e-01,  8.3196e-01,
          4.6768e-01, -1.0136e-01, -4.9342e-02,  3.6708e-01, -1.0598e+00,
         -5.5693e-02,  4.7733e-02,  6.7226e-01,  3.8414e-01,  3.5962e-02,
         -6.4479e-02,  3.0367e-01, -1.0349e+00, -8.6318e-02, -6.8407e-02,
          7.1294e-01,  5.9022e-01, -1.2609e-01,  1.1361e+00,  4.4008e-01,
         -1.3003e+00, -1.4995e-01,  1.0873e+00],
        [-3.8347e-02,  1.3572e+00,  1.5179e-01,  2.0344e-01,  1.4596e+00,
         -2.9046e-01,  1.0983e-01,  2.2025e-01,  2.4196e-02,  1.6842e+00,
         -3.5109e-01, -4.2543e-02,  4.8772e-01,  2.3365e-01, -3.0595e-01,
         -1.2635e-01, -1.8758e-02,  1.6843e+00, -1.7794e-01, -4.7847e-01,
         -1.9010e-01,  3.8217e-01, -2.0158e-01, -5.6479e-01,  1.4425e+00,
         -1.0468e+00,  1.3829e-01,  3.7349e-01, -1.4186e+00, -3.1100e-01,
          1.3746e-01,  4.1611e-01,  1.6021e+00, -1.2840e+00, -8.9214e-02,
         -8.8074e-01, -4.1493e-01,  1.6363e-01, -1.0631e-01, -9.0796e-01,
          1.7779e+00, -1.9049e+00, -2.3572e-02, -7.5005e-01,  2.5271e-01,
          4.1617e-01, -1.4496e-02, -7.2184e-01],
        [ 5.6465e-01,  3.0856e-01, -1.1013e-01,  1.3886e-01, -7.0250e-03,
         -1.3983e+00, -6.3323e-02,  5.8793e-02,  7.1360e-01,  3.0464e-01,
          1.7324e-01, -3.5191e-01, -3.8504e-02, -2.2278e+00,  1.2191e-01,
         -3.7979e-01,  9.0148e-01,  3.9107e-01,  2.5763e-01,  5.8064e-01,
         -2.9884e-01, -2.7228e+00,  2.9979e-01,  5.0290e-01, -4.7031e-02,
          3.1293e-01, -6.8668e-02, -3.5686e-01, -4.2767e-02, -1.3787e+00,
         -4.2417e-03, -2.9192e-01,  6.1147e-02,  3.0189e-01,  6.1499e-02,
          9.5099e-02,  1.3005e-01, -2.3377e+00,  6.7178e-02,  1.0730e-01,
          1.4400e-01,  4.7224e-01, -7.5686e-02,  5.8496e-01,  3.3933e-01,
         -2.7273e+00, -1.1684e-01,  5.7696e-01],
        [ 2.2019e-01,  4.1153e-01, -4.7825e-02, -1.0523e-01,  1.8160e-01,
          2.2008e-01,  2.6227e-03, -1.2921e-01,  3.0550e-01,  4.8897e-01,
         -6.2079e-02,  2.1096e-01,  5.7359e-02, -1.0377e-01,  4.5708e-02,
          2.1578e-01,  3.6156e-01,  6.4493e-01, -1.0473e-01,  8.2902e-02,
         -4.2749e-02, -4.2373e-01,  1.0861e-02, -7.2582e-03,  1.2834e-01,
         -1.5320e-01, -4.6243e-02,  3.8897e-03, -7.7054e-02,  2.3669e-01,
         -4.3146e-02, -7.3281e-02,  2.5541e-01,  3.7831e-02, -2.8870e-02,
          7.0954e-02, -1.0250e-01, -1.3323e-01, -6.0868e-02,  2.3475e-02,
          3.2053e-01,  6.5318e-02,  3.3438e-02, -1.7130e-01,  8.4737e-02,
         -4.6121e-01,  6.5954e-03, -2.3817e-01],
        [-5.8188e-01,  3.3331e+00,  8.2925e-02, -1.9650e-01,  1.5165e-01,
          2.3317e-01,  8.5051e-02, -2.2814e-01, -5.7438e-01,  3.2046e+00,
          7.7662e-02, -3.0045e-01,  2.6380e-01, -2.5860e-01,  7.0592e-02,
         -3.6659e-01, -5.4185e-01,  2.3264e+00,  4.0223e-01, -1.0581e+00,
          3.8480e-01, -1.0164e+00,  3.9845e-01, -1.0373e+00,  4.4327e-01,
         -4.2116e+00, -9.2056e-02,  1.6324e-01, -1.1973e-01,  1.9884e-01,
          1.3698e-02,  1.4988e-01,  4.6475e-01, -3.7460e+00,  3.0631e-02,
         -4.5664e-01, -2.2659e-01, -2.4921e-01,  1.0375e-01, -4.4187e-01,
          3.4613e-01, -3.0297e+00, -1.1111e-01, -5.5184e-01, -4.5863e-01,
         -1.0893e+00, -1.4124e-01, -4.3507e-01],
        [ 1.2074e-01, -2.1540e+00, -3.3728e-01,  3.4618e-01, -2.6604e-01,
         -6.2961e-01, -2.8214e-01,  2.7460e-01,  2.9784e-01, -2.0140e+00,
         -5.9321e-02, -2.4979e-01, -1.3335e-01, -7.2549e-01, -9.5233e-02,
         -3.1510e-01,  1.8227e-01, -1.6357e+00, -2.9112e-01, -8.2148e-02,
         -1.7258e-01, -4.5949e-01, -2.7996e-01, -7.1671e-03,  6.8887e-01,
          2.2059e+00,  2.0116e-01,  7.7828e-02,  2.1478e-01, -6.5977e-01,
          1.8128e-01,  7.6758e-02,  6.1490e-01,  2.0934e+00,  2.0035e-01,
         -3.3874e-01,  1.2332e-01, -7.1794e-01,  2.8515e-01, -2.7228e-01,
          8.0558e-01,  1.2775e+00,  1.6469e-01, -1.2131e+00,  2.4797e-01,
         -4.8763e-01,  2.3328e-01, -1.2796e+00],
        [ 4.5088e-01,  6.0727e-01, -1.3331e-01, -1.1321e-01,  8.0370e-01,
         -1.0803e+00, -1.8961e-01, -1.1707e-01,  5.1234e-01,  7.2468e-01,
         -1.2582e-01,  1.2575e-01,  7.1302e-01, -1.2373e+00, -1.1026e-01,
          1.9846e-01,  5.0985e-01,  6.9033e-01, -7.1895e-02,  8.8028e-02,
          7.6693e-01, -1.2833e+00,  1.1159e-02,  1.4044e-01,  8.7379e-01,
          4.2930e-01,  2.3771e-01, -8.4242e-02, -7.2858e-01, -1.0688e+00,
          2.2993e-01, -1.4074e-01,  1.2244e+00,  5.2221e-01,  2.3872e-01,
          2.8961e-01, -6.2115e-01, -1.2311e+00,  2.2797e-01,  3.0140e-01,
          1.3403e+00,  1.4628e+00,  7.9086e-03, -5.4692e-02, -7.4645e-01,
         -1.2919e+00,  1.1428e-01,  1.5582e-02],
        [-7.2766e-01,  3.8486e+00,  1.8550e-02,  6.4530e-02,  1.5245e-01,
         -7.5113e-01,  5.6277e-02,  7.8124e-02, -8.0480e-01,  5.3758e+00,
         -2.1791e-03,  1.0885e+00,  2.7520e-01, -2.0021e+00, -3.7194e-02,
          1.1424e+00, -9.0206e-01,  5.1545e+00, -2.0233e-02, -2.2555e-01,
          4.9250e-01, -3.5698e+00,  4.4704e-02, -1.9037e-01, -2.4302e-01,
         -2.4133e+00, -6.8486e-02, -2.9547e-01, -1.6220e-01, -7.4781e-01,
         -6.5618e-02, -2.6950e-01, -2.1326e-01, -1.6160e+00, -9.6287e-03,
         -1.6210e-02, -3.0031e-01, -2.0798e+00, -1.3399e-02,  1.8978e-02,
         -2.2756e-01, -8.2271e-01, -2.1051e-02, -3.9530e-02, -5.0254e-01,
         -3.6018e+00,  4.4153e-02, -6.7066e-02],
        [ 7.5722e-01,  4.8489e-01,  5.6360e-02,  3.7736e-01, -2.4901e-01,
         -1.4696e+00,  1.2349e-01,  3.7876e-01,  6.5445e-01,  3.7028e-01,
          6.9010e-03, -4.6769e-01, -1.8768e-01, -3.6727e-01,  5.1550e-02,
         -4.7136e-01,  6.7607e-01,  3.0199e-02, -7.2167e-02, -1.0223e+00,
         -1.2182e-01,  3.1805e-01,  2.1435e-02, -1.0922e+00,  8.3838e-01,
          1.2494e+00,  8.8854e-04, -1.9315e-01,  2.4244e-01, -1.3812e+00,
          4.5475e-02, -1.1933e-01,  8.7513e-01,  9.7842e-01,  1.6512e-01,
         -2.6848e-01,  2.0199e-01, -4.1447e-01,  5.6240e-02, -2.3664e-01,
          6.7450e-01,  7.4006e-01, -2.2152e-01, -3.3022e-01,  1.3194e-01,
          4.1364e-01, -2.9418e-01, -4.0835e-01],
        [ 5.8711e-02, -1.6622e+00, -1.2063e-01, -2.3191e-01,  3.0295e-01,
          5.4846e-01, -8.3023e-02, -2.9339e-01,  1.2690e-01, -1.8075e+00,
         -6.0338e-03, -4.5146e-01, -2.8074e-01,  1.0674e+00,  5.1834e-02,
         -5.2210e-01,  1.9322e-01, -1.8545e+00, -6.8799e-02, -6.1212e-01,
         -9.9797e-01,  1.2665e+00,  3.1112e-02, -5.8598e-01,  8.5913e-01,
          1.5926e-02, -5.7757e-02, -5.5717e-01, -3.1304e-01,  5.0922e-01,
         -2.1367e-02, -5.6029e-01,  9.0311e-01, -6.6740e-01, -9.5880e-03,
         -3.6910e-01,  2.6717e-01,  1.0461e+00, -1.1963e-02, -4.1252e-01,
          9.5311e-01, -1.6707e+00,  5.5635e-02,  1.7529e-01,  1.0294e+00,
          1.3658e+00,  1.3323e-01,  1.1625e-01],
        [ 3.2632e-02,  1.2735e+00,  1.2505e-01,  7.5087e-01,  2.0464e-01,
          8.3963e-01,  1.1080e-01,  7.3488e-01,  1.7271e-01,  2.1534e+00,
          5.5591e-02,  9.2982e-01,  3.6030e-01,  7.4190e-01,  1.2607e-01,
          9.2877e-01,  1.9762e-01,  2.9028e+00,  2.0492e-01,  1.7038e-01,
          5.2284e-01,  3.2366e-01,  1.7933e-01,  2.5952e-01,  1.0150e+00,
         -2.0282e+00, -6.7094e-02, -1.2309e+00, -1.4364e-01,  8.3393e-01,
         -2.9997e-02, -1.2480e+00,  1.1979e+00, -2.5415e+00, -3.0407e-01,
         -7.5398e-01, -3.5994e-01,  7.9543e-01, -2.5345e-01, -6.9194e-01,
          1.3647e+00, -1.4438e+00,  2.8840e-01,  4.4997e-01, -5.6837e-01,
          3.4888e-01,  2.3632e-01,  4.9539e-01],
        [ 2.3423e-01,  1.2836e+00,  1.6190e-01, -1.9737e-01, -5.5117e-01,
         -8.4677e-01,  2.2879e-01, -2.3012e-01,  1.8413e-01,  1.1239e+00,
         -7.3768e-02,  4.6242e-01, -3.5557e-01, -1.3452e+00, -7.6214e-02,
          4.6428e-01,  2.9703e-01,  1.1915e+00, -4.1000e-01,  3.7879e-01,
         -9.6984e-03, -1.8613e+00, -4.8674e-01,  3.5147e-01,  4.1995e-01,
         -1.1982e+00, -3.0889e-01, -1.6739e-01,  5.7405e-01, -7.9815e-01,
         -3.6785e-01, -1.8289e-01,  5.6113e-01, -9.1472e-01,  4.1191e-02,
          3.4433e-01,  3.1427e-01, -1.4261e+00,  1.8848e-02,  3.6512e-01,
          6.5544e-01, -6.0016e-01,  1.8841e-01, -1.9195e-02,  5.4872e-02,
         -1.8967e+00,  1.5937e-01,  7.9203e-02],
        [ 5.1011e-01, -8.6310e-01,  1.3534e-01,  1.9393e-01,  3.8372e-01,
         -8.8251e-02,  2.0344e-01,  1.2852e-01,  4.4857e-01, -6.6391e-01,
          8.1424e-02,  2.0255e-01,  1.5414e-01,  5.8224e-01,  9.8881e-02,
          1.8010e-01,  6.6060e-01, -6.0315e-01,  2.5032e-01,  1.3791e-02,
          6.5849e-02,  6.4057e-01,  1.5244e-01,  3.7470e-03,  1.0798e+00,
         -5.5862e-01, -1.8821e-01, -2.9850e-01, -4.7878e-01, -1.0881e-01,
         -1.9978e-01, -3.7267e-01,  9.1483e-01, -5.8330e-01, -4.1846e-01,
         -2.3245e-01, -9.1196e-02,  5.1090e-01, -3.4157e-01, -2.0755e-01,
          8.3306e-01, -4.6702e-01, -1.2292e-01, -5.0007e-01, -2.0421e-02,
          6.4950e-01, -1.1971e-01, -4.2367e-01],
        [ 9.8505e-01, -6.5529e-01,  1.3856e-01, -2.8092e-02, -2.8667e-01,
         -1.0001e+00,  2.0334e-01, -4.7327e-02,  8.9529e-01, -9.4748e-01,
          1.5763e-01, -5.5964e-01, -1.6069e-01, -4.0886e-01,  1.5425e-01,
         -6.0178e-01,  8.1333e-01, -8.7104e-01,  3.9430e-01,  2.9867e-01,
         -1.4558e-01,  5.9967e-02,  3.5983e-01,  3.8797e-01,  8.1717e-01,
          9.3637e-01,  1.2316e-01, -5.2495e-02,  3.0022e-01, -1.0054e+00,
          7.9706e-02,  1.1193e-02,  6.5112e-01,  8.5361e-01,  1.4569e-01,
         -1.5184e-01,  1.7437e-01, -3.9625e-01,  1.3515e-01, -2.3032e-01,
          3.9928e-01,  5.0797e-01, -5.8658e-01, -3.0441e-01,  9.3340e-02,
          8.3318e-02, -6.8648e-01, -3.7338e-01],
        [ 3.1226e-01, -5.5581e-02,  1.6910e-01,  8.3981e-01, -6.4024e-01,
         -1.2538e+00,  2.5061e-01,  8.4985e-01,  5.0247e-01, -2.1371e-01,
         -4.1315e-02, -5.8078e-01, -1.4280e-01, -1.6834e+00,  4.5730e-02,
         -6.6294e-01,  4.1242e-01, -4.1371e-01, -4.3368e-01, -1.7798e-02,
          1.0884e-01, -1.5834e+00, -3.9374e-01, -2.0839e-03, -1.1859e-02,
          2.1201e+00, -1.0496e-01, -2.5538e-02,  5.8589e-01, -1.2359e+00,
         -1.4320e-01,  4.0406e-02,  2.4736e-01,  2.6224e+00,  5.3669e-01,
          2.8061e-02,  1.4627e-01, -1.7008e+00,  4.5282e-01,  3.1142e-02,
          4.0214e-01,  2.1492e+00,  3.6503e-01, -5.4303e-01, -1.4233e-01,
         -1.4938e+00,  3.3502e-01, -6.0355e-01],
        [ 5.6780e-01,  1.1080e+00,  3.6529e-01,  5.6950e-02,  3.7706e-01,
         -1.1388e-01,  3.3856e-01,  4.5870e-02,  7.3463e-01,  1.0374e+00,
          9.6738e-02, -3.4104e-01,  3.7405e-01,  1.3415e-01,  1.8812e-01,
         -3.7615e-01,  7.6452e-01,  5.5102e-01, -2.0084e-01, -5.0897e-01,
          3.2715e-01,  3.7297e-01, -2.5777e-01, -5.4379e-01,  9.4858e-01,
          7.8995e-01, -5.7176e-02, -7.1509e-02, -3.7416e-01, -1.5226e-01,
         -1.4759e-01, -3.6149e-03,  8.5932e-01,  9.4918e-01, -2.1882e-01,
         -1.2473e-01, -3.7751e-01,  1.6291e-01, -2.8542e-01, -1.7891e-01,
          8.1445e-01,  7.2195e-01, -1.4139e-01,  2.7858e-01, -3.5676e-01,
          3.3470e-01, -8.4590e-02,  1.9158e-01],
        [ 1.3328e+00,  4.8118e-01,  3.9168e-02,  8.3420e-02,  1.0190e-01,
         -1.0725e+00,  1.2145e-02,  1.2468e-03,  1.4586e+00, -1.9891e+00,
         -1.7614e-01,  6.7892e-02,  1.9054e-01,  1.4124e-01, -2.1063e-01,
          1.6348e-01,  1.1287e+00, -2.7812e+00, -2.3846e-01,  1.8943e+00,
          3.3471e-01,  1.0348e+00, -1.2908e-01,  1.8964e+00,  2.0084e-01,
         -4.5331e-01,  4.7680e-02,  9.9659e-01, -1.5364e-01, -9.7110e-01,
          2.7474e-02,  9.9623e-01,  1.8664e-01, -1.6369e-01,  1.0054e-01,
          1.3176e+00, -2.4507e-01,  1.9533e-01,  8.3385e-02,  1.3404e+00,
          1.3845e-01, -1.5668e-01, -1.4244e-02,  1.1519e+00, -3.7108e-01,
          9.7485e-01, -8.0597e-02,  1.1732e+00],
        [ 2.7792e-01,  2.6026e-01,  1.3759e-02,  2.7866e-01,  1.1273e+00,
         -3.8054e-01, -1.6594e-02,  3.6889e-01,  4.6522e-01,  5.3633e-01,
         -3.0731e-02,  5.3141e-01, -1.1450e+00,  1.0102e+00, -2.2932e-03,
          6.0136e-01,  6.2966e-01,  1.1210e+00, -3.9178e-02,  4.1029e-01,
         -3.0801e+00,  2.6932e+00, -5.7455e-02,  4.7685e-01,  2.3203e-01,
         -5.0568e-01, -3.1220e-02, -1.0164e-01, -1.1555e+00, -3.0046e-01,
          1.3689e-02, -8.7239e-02,  2.3473e-01, -4.6188e-01, -3.1657e-02,
          3.6316e-01,  1.1197e+00,  1.1033e+00, -3.6870e-02,  2.9225e-01,
          3.2332e-01, -5.9027e-01,  1.3662e-02,  5.1435e-03,  3.0872e+00,
          2.6664e+00,  1.1756e-02,  2.2518e-03],
        [ 4.5610e-01,  3.3493e-01,  2.6053e-01,  2.2249e-01, -2.2086e-01,
         -9.3160e-01,  2.8880e-01,  1.1077e-01,  4.2386e-01,  7.3479e-01,
         -3.9583e-01,  5.5822e-01, -1.7715e-01, -9.9670e-01, -3.4228e-01,
          5.0827e-01,  7.2176e-01,  9.2246e-01,  2.7230e-01,  5.7572e-01,
         -2.5693e-01, -9.1592e-01,  2.5852e-01,  6.3968e-01,  5.6020e-01,
          8.5234e-01,  2.0819e-02, -5.9646e-02,  2.2681e-01, -8.7109e-01,
          5.9502e-02, -5.4033e-02,  6.8131e-01,  1.0975e+00,  3.6935e-03,
         -4.5715e-02,  2.1643e-01, -9.6136e-01,  9.2101e-02,  4.3044e-02,
          7.7945e-01,  1.0987e+00,  2.0383e-01,  1.8730e-01,  2.7938e-01,
         -9.4687e-01,  2.0435e-01,  8.5438e-02],
        [ 6.6487e-01, -7.3864e-01, -1.7330e-02, -1.7678e+00,  1.1443e-02,
         -4.1870e-02,  8.6494e-02, -1.7799e+00,  6.2610e-01, -5.3111e-01,
         -9.8874e-02,  9.3183e-01, -7.6826e-02,  1.6181e-01, -1.8032e-01,
          9.6135e-01,  7.0402e-01, -1.1375e-01,  1.0663e-01,  1.2261e+00,
         -2.0959e-01,  4.3674e-01,  7.0230e-02,  1.1791e+00,  4.1848e-01,
         -6.2658e-01, -1.8382e-01, -9.0879e-02, -4.3694e-02,  2.2750e-02,
         -6.1821e-02, -5.3945e-02,  5.5175e-01, -3.0836e-01, -1.1050e-02,
          3.4796e-02,  8.8460e-02,  1.3028e-01, -5.2908e-02,  3.6809e-02,
          6.0028e-01, -2.9457e-01, -1.9555e-01,  1.4040e-01,  2.6361e-01,
          5.1491e-01, -1.8783e-01,  1.3831e-01],
        [ 9.1995e-02,  3.8806e-01,  4.4708e-02,  2.4577e-01,  8.6349e-02,
         -1.5897e+00,  5.8907e-02,  1.7989e-01,  7.6772e-02,  5.8243e-01,
         -3.7563e-01,  8.8157e-01, -2.5332e-01, -1.6186e+00, -3.5920e-01,
          8.7033e-01, -5.2801e-02,  7.1124e-01, -3.6514e-01,  4.7665e-01,
         -5.0221e-01, -1.6277e+00, -3.6295e-01,  5.0724e-01,  5.4801e-01,
          3.3029e-01,  1.8739e-02,  1.2655e-01, -4.4861e-02, -1.6499e+00,
         -5.4187e-02,  6.2875e-02,  7.0551e-01, -2.9946e-01,  2.0501e-02,
         -7.7196e-01,  2.1311e-01, -1.5734e+00,  1.9140e-02, -7.4879e-01,
          5.5409e-01, -3.4379e-01,  1.5413e-01,  5.1387e-01,  4.3275e-01,
         -1.6293e+00,  1.6260e-01,  4.4292e-01],
        [ 8.8093e-01, -5.2577e-01, -8.9985e-03, -1.0264e+00,  6.4458e-01,
         -1.3214e-01, -4.6075e-02, -1.0260e+00,  9.2677e-01, -6.2695e-01,
          1.5039e-01, -1.2454e-01,  3.6795e-01, -1.8234e-01,  1.4633e-01,
         -1.0066e-01,  1.0496e+00, -7.3262e-01,  8.2521e-02, -3.8373e-01,
         -3.8307e-02, -2.3561e-01,  4.3381e-02, -4.3177e-01,  2.4375e-01,
          4.2855e-01, -1.0928e-02, -1.7379e-01, -6.3723e-01, -1.8090e-01,
         -1.7657e-02, -1.7259e-01,  2.6044e-01,  9.3468e-02,  1.4914e-04,
         -7.9097e-01, -2.7913e-01, -2.0379e-01,  3.2195e-02, -8.1035e-01,
          4.1884e-01, -2.4270e-01,  1.4003e-01, -1.1035e+00,  1.2088e-01,
         -3.0520e-01,  1.2473e-01, -1.1302e+00],
        [ 3.2523e-02,  6.2715e-01, -1.4940e-01, -1.8117e-01,  1.0710e-01,
         -2.1941e+00, -1.8341e-01, -2.3756e-01,  1.5982e-01,  5.5239e-01,
          2.0000e-01, -2.0051e-01, -1.4273e-01, -3.6469e+00,  1.1324e-01,
         -1.9918e-01,  1.1083e-01,  6.1390e-01,  2.8927e-01,  1.0302e-01,
         -4.4580e-01, -3.6448e+00,  2.7825e-01,  1.7270e-01, -2.0986e-02,
          1.7196e+00,  5.7630e-02,  5.5241e-01, -1.6249e-02, -2.1025e+00,
          1.2452e-01,  5.5232e-01,  1.1507e-01,  2.0407e+00,  5.7013e-02,
          6.7218e-01,  1.4650e-01, -3.6083e+00,  7.1916e-02,  7.2913e-01,
          3.8416e-01,  2.3508e+00,  1.5192e-01,  6.3998e-01,  4.9547e-01,
         -3.5622e+00,  1.2881e-01,  5.4781e-01],
        [ 4.6903e-01,  5.3320e-01, -1.3280e-01,  1.7133e-02, -5.4880e-01,
         -1.3940e+00, -1.5475e-01,  1.9430e-02,  2.7259e-01, -2.9820e-01,
          4.5842e-02, -1.4912e-01, -3.7101e-02, -2.9984e-01,  7.0049e-02,
         -1.0111e-01, -1.7019e-01, -8.2981e-01, -8.7387e-02,  4.0291e-02,
          6.5054e-01,  5.4456e-01, -6.5000e-02, -3.3401e-02,  1.2029e+00,
          7.0330e-01, -1.4569e-01,  2.1938e-02,  5.1473e-01, -1.4472e+00,
         -1.3341e-01,  2.3384e-02,  8.0812e-01,  3.9229e-02,  5.9733e-02,
         -5.2162e-02,  6.7608e-02, -3.2487e-01, -4.0401e-02, -1.0874e-01,
          4.4672e-01, -7.3384e-01,  2.6108e-02, -8.5581e-01, -6.8801e-01,
          5.8837e-01,  1.0225e-01, -8.4981e-01],
        [ 8.9918e-02,  1.2734e+00,  2.0479e-01,  4.0938e-01,  5.3712e-01,
         -1.3124e+00,  2.0780e-01,  3.7352e-01,  1.8315e-01,  1.2903e+00,
         -2.2466e-01,  1.5596e-02,  2.4944e-01, -1.7942e+00, -2.4540e-01,
          2.3915e-02,  1.4457e-01,  1.4556e+00, -2.5978e-01,  4.1777e-01,
          7.0395e-02, -1.9866e+00, -1.9376e-01,  4.1437e-01,  2.2175e-01,
         -4.1566e-01,  7.1360e-02, -2.9630e-01, -4.6899e-01, -1.3205e+00,
          1.7558e-01, -3.6414e-01,  1.9785e-01,  1.7471e-02, -6.5069e-02,
          5.2487e-01, -2.1066e-01, -1.8495e+00, -2.6208e-02,  5.4608e-01,
          1.8959e-01,  5.5019e-01,  2.6388e-01, -5.2246e-01, -5.8066e-02,
         -1.9654e+00,  1.8864e-01, -4.9177e-01],
        [ 5.8312e-01,  6.0701e-01, -1.7534e-01,  6.4473e-03,  2.0281e-01,
         -2.9339e-01, -1.7484e-01,  1.7745e-02,  7.0568e-01,  5.0423e-01,
         -2.7175e-02, -3.5614e-01, -1.0497e-01,  1.4252e-02,  3.9426e-02,
         -3.8740e-01,  6.8617e-01,  2.8532e-01, -3.8034e-01, -5.8010e-01,
         -3.5482e-01,  1.9271e-01, -3.5182e-01, -5.8346e-01,  8.4450e-01,
          1.6817e-01,  7.2843e-02,  5.6484e-02, -2.2293e-01, -2.9027e-01,
         -5.1667e-02,  1.3099e-02,  8.5932e-01,  2.3252e-01,  2.1648e-01,
         -9.6344e-03,  5.7637e-02,  2.8071e-02,  1.5162e-01,  4.6155e-02,
          8.0613e-01,  3.1482e-01, -9.2229e-02,  2.0912e-01,  4.0541e-01,
          2.1995e-01, -1.0325e-01,  2.0999e-01],
        [ 9.9218e-01, -1.5726e-01, -2.5594e-01, -3.0421e-01,  9.2680e-02,
         -7.5915e-01, -1.6216e-01, -3.1341e-01,  8.2463e-01, -3.9002e-01,
         -1.8463e-01, -8.9999e-01, -2.6423e-01, -7.9365e-01, -1.4596e-01,
         -8.6364e-01,  7.1589e-01, -5.1405e-01,  6.7452e-02, -1.7244e-01,
         -4.9118e-01, -7.7091e-01,  1.0395e-01, -1.2861e-01,  5.6431e-01,
         -6.9078e-01, -4.4823e-02, -2.6436e-01, -2.6359e-02, -7.2424e-01,
         -4.7423e-02, -2.3986e-01,  6.4388e-01, -7.4205e-01,  1.3481e-02,
         -9.3789e-02,  3.0798e-01, -7.2165e-01,  1.9456e-03, -7.6820e-02,
          5.5493e-01, -6.3973e-01,  1.5742e-01,  5.1362e-01,  4.8359e-01,
         -7.9136e-01,  1.4498e-01,  4.9441e-01],
        [ 3.9239e-01,  2.2289e-01, -1.4194e-01, -8.2880e-01,  1.5967e-01,
         -1.4029e+00, -1.8764e-01, -8.0314e-01,  6.1313e-01,  5.2981e-02,
         -6.4510e-02, -7.2479e-01, -2.4461e-02, -1.1036e+00, -4.2119e-02,
         -8.0108e-01,  5.0731e-01, -5.2490e-02, -4.5382e-02,  2.2849e-01,
         -7.2798e-02, -8.0867e-01, -8.1976e-02,  1.5974e-01,  5.6655e-01,
          8.4592e-01, -1.5243e-01, -5.0080e-02, -1.1534e-01, -1.3579e+00,
         -9.4904e-02,  7.1043e-03,  8.0284e-01,  7.3142e-01,  2.0580e-02,
         -9.8854e-01, -6.5217e-02, -1.0104e+00,  2.4343e-02, -1.1001e+00,
          6.0006e-01,  4.9112e-01, -5.7256e-01,  6.3300e-03,  1.7236e-02,
         -8.1507e-01, -5.3736e-01,  6.8092e-03],
        [ 7.7809e-01,  1.1022e-01, -7.3575e-02, -4.3711e-01,  4.1531e-01,
         -3.5436e-01, -6.8014e-02, -4.8138e-01,  5.4375e-01,  2.6433e-01,
         -1.5099e-01,  1.5393e-01,  6.8552e-01, -6.6044e-04, -1.1037e-01,
          1.7893e-01,  3.9576e-01,  4.8121e-01, -8.3199e-02,  1.8807e-02,
          8.8197e-01,  9.5748e-02, -1.1654e-01,  1.2594e-01,  9.3376e-01,
          5.9776e-02, -2.2880e-01,  1.7951e-01, -4.3192e-01, -4.6683e-01,
         -1.4567e-01,  2.1488e-01,  9.1408e-01,  3.7992e-02, -1.4437e-01,
         -1.1715e-01, -6.8742e-01,  4.4032e-02, -1.1912e-01, -1.5350e-02,
          9.6128e-01,  3.8292e-01,  8.8733e-01,  5.1232e-01, -8.4289e-01,
          2.0929e-01,  9.2923e-01,  5.6867e-01],
        [ 7.0831e-01, -2.6974e-01, -8.6043e-02,  7.0063e-01, -3.8016e-02,
         -1.1512e+00, -7.9099e-02,  7.2025e-01,  7.3828e-01, -1.6648e-01,
          2.8781e-02,  4.6931e-01,  4.1524e-01, -1.0757e+00,  5.7933e-02,
          4.7544e-01,  6.4673e-01, -2.2031e-01, -2.5076e-02, -9.3323e-02,
          7.4732e-01, -5.2090e-01, -9.3593e-02, -1.2258e-01,  3.0713e-01,
          4.7545e-01, -5.9821e-01, -1.7058e-01, -7.2299e-02, -1.1026e+00,
         -5.0305e-01, -1.7091e-01,  3.6049e-01,  5.4020e-01,  2.6936e-01,
          1.3758e-01, -4.3468e-01, -1.1131e+00,  2.4266e-01,  2.1741e-01,
          4.2874e-01,  4.5256e-01,  8.1752e-03, -6.6910e-02, -7.7355e-01,
         -5.2855e-01,  9.4743e-02, -1.5531e-01],
        [-2.5934e-01, -5.7527e-01,  2.7869e-01, -1.7897e-01, -2.1475e-01,
         -1.0528e+00,  2.8513e-01, -1.3469e-01, -2.5713e-01, -2.3873e-01,
          6.6542e-02,  6.6427e-01, -7.6271e-02, -2.0132e+00,  5.0977e-02,
          7.3201e-01, -3.1138e-01, -1.5363e-01, -5.4682e-02,  1.1138e-01,
          1.5052e-01, -2.0718e+00, -8.9038e-02,  4.6712e-02,  7.9027e-01,
         -6.5191e-02,  5.4243e-01,  1.6807e-01,  2.7001e-01, -1.1354e+00,
          5.8230e-01,  1.4767e-01,  9.4851e-01,  1.0152e-01,  3.9829e-01,
          4.3176e-01,  1.5672e-01, -1.9849e+00,  3.9231e-01,  4.6593e-01,
          7.5395e-01,  3.2118e-01, -1.0308e-01,  2.0989e-01, -8.6130e-02,
         -2.0971e+00, -1.1966e-01,  1.8796e-01],
        [ 3.2975e-01, -2.9362e-01, -4.1285e-01, -7.5505e-01,  4.1680e-01,
         -5.9103e-01, -4.3950e-01, -8.1499e-01,  2.5269e-01, -6.3659e-02,
         -2.3062e-01,  4.6904e-01,  1.0810e-01, -6.0890e-01, -2.9260e-01,
          4.2057e-01,  4.0936e-01, -7.2363e-02,  1.5120e-01,  1.2540e-01,
         -4.2801e-02, -2.9682e-01,  2.6914e-01,  3.0870e-02,  6.1291e-01,
         -6.5199e-01,  1.3489e-01, -6.6167e-01, -4.0298e-01, -6.8745e-01,
          1.5351e-01, -6.1090e-01,  6.3107e-01, -8.7625e-01, -1.4901e-01,
         -3.6598e-01, -1.7764e-01, -6.6900e-01, -9.9791e-02, -3.2629e-01,
          6.0656e-01, -6.4522e-01,  1.4800e-01,  3.3050e-01, -5.1783e-02,
         -2.5935e-01,  9.9225e-02,  3.1552e-01],
        [ 4.7590e-01,  4.1631e+00, -1.0424e-01,  3.8536e-01,  2.4051e+00,
         -7.5218e-02, -4.6959e-02,  3.7963e-01,  3.9211e-01,  3.4298e+00,
          1.7478e-02,  2.7026e-01,  2.6736e-01,  2.2673e-01,  4.8293e-02,
          2.7101e-01,  1.5952e-01,  2.7820e+00, -8.8800e-03, -1.5680e+00,
         -1.4932e+00,  7.6641e-01, -1.0391e-01, -1.5639e+00,  1.5125e-01,
          1.1074e+00, -1.0331e-01,  7.6471e-02, -2.3262e+00, -1.7551e-01,
         -4.7553e-02,  1.8304e-02, -4.0339e-02,  1.2420e+00, -6.2866e-03,
          5.4187e-01, -2.7576e-01,  2.6951e-01, -5.3171e-02,  5.4426e-01,
         -2.8500e-01,  1.1746e+00, -3.9004e-02,  1.2928e+00,  1.5218e+00,
          7.5521e-01, -5.4860e-03,  1.3563e+00],
        [ 2.8370e-01, -3.5165e-02, -4.7162e-01, -1.2586e-01,  4.7379e-01,
          4.4614e-01, -4.8018e-01, -1.4150e-01,  3.5951e-01,  1.7488e-01,
          3.1023e-01,  5.7239e-02,  5.8313e-02,  3.6682e-01,  3.1862e-01,
          1.6754e-02,  6.2101e-01,  2.8525e-01,  4.1435e-01, -2.6699e-01,
         -3.7248e-01,  2.8733e-01,  3.5706e-01, -2.9795e-01,  9.5454e-01,
          4.4792e-01, -2.5320e-01, -4.2164e-01, -5.2304e-01,  3.9576e-01,
         -2.7104e-01, -3.5754e-01,  9.3002e-01,  2.6141e-02,  1.9857e-01,
         -8.1385e-01, -1.3738e-02,  4.2359e-01,  1.7793e-01, -8.1583e-01,
          1.1290e+00, -1.0433e-01,  4.7731e-01,  5.3517e-01,  4.3351e-01,
          2.8763e-01,  4.3485e-01,  5.4310e-01],
        [ 6.3289e-01,  1.6273e+00,  1.9150e-01, -1.0615e-01,  4.2561e-02,
         -2.5045e-02,  1.7858e-01, -1.3051e-01,  7.2521e-01,  1.6267e+00,
          4.4486e-02, -2.8834e-01,  4.6179e-01, -1.4409e-01,  4.1664e-02,
         -2.5394e-01,  7.8679e-01,  1.2741e+00,  6.0859e-02, -8.2116e-01,
          9.9401e-01, -4.1457e-01,  9.7704e-02, -8.1696e-01,  9.6333e-01,
         -1.0452e+00,  7.3380e-02, -1.2869e-02, -1.1740e-01, -1.0416e-01,
          2.9051e-02,  6.8420e-03,  1.0791e+00, -1.1586e+00,  4.5939e-01,
         -2.4420e-01, -4.4569e-01, -1.5621e-01,  4.6797e-01, -2.2256e-01,
          1.2529e+00, -1.4133e+00,  3.1343e-01, -4.5637e-01, -1.0090e+00,
         -3.5400e-01,  3.4878e-01, -5.1894e-01],
        [ 6.1607e-01, -3.4637e+00, -1.4534e-02,  8.7227e-02, -2.9160e-01,
          4.8488e-02, -2.1775e-02,  8.6807e-02,  7.8014e-01, -3.2825e+00,
         -1.6362e-01,  3.0845e-01,  4.8367e-01, -4.2487e-01, -2.1199e-01,
          3.4577e-01,  7.2977e-01, -3.1303e+00, -1.2927e-02, -2.2092e-01,
          1.1190e+00, -8.5290e-01, -1.8790e-02, -1.5617e-01,  7.7442e-02,
         -2.8735e-01, -9.2956e-02,  4.5579e-01,  2.4010e-01,  8.2034e-02,
         -9.6905e-02,  4.5516e-01,  2.4431e-01,  2.0336e-01,  3.6171e-01,
         -4.7794e-01, -4.7200e-01, -3.9037e-01,  4.0220e-01, -3.9444e-01,
          2.0037e-01,  1.2746e-02, -3.1616e-01, -8.7071e-01, -1.0898e+00,
         -8.7661e-01, -3.5005e-01, -8.6092e-01],
        [-1.0009e-01,  1.4322e+00,  3.1282e-02, -1.2058e+00, -1.3929e-01,
         -7.5016e-01,  1.3171e-02, -1.2838e+00, -2.1508e-01,  9.0760e-01,
          2.5065e-01, -3.8338e-01, -4.4849e-01, -2.8900e-01,  2.1350e-01,
         -3.3513e-01, -2.0499e-01,  2.2689e-01, -8.7365e-02,  9.6264e-02,
         -6.2039e-01, -2.7193e-01, -6.8322e-02,  7.0887e-02,  1.4326e+00,
         -1.5613e+00,  1.9041e-01, -3.6716e-01,  1.8420e-01, -7.4389e-01,
          1.3177e-01, -3.2001e-01,  1.5179e+00, -1.9435e+00, -2.4134e-02,
          3.5372e-01,  4.4716e-01, -2.2409e-01,  4.6644e-04,  4.0068e-01,
          1.3515e+00, -1.8061e+00,  3.9089e-01,  9.1928e-01,  6.6292e-01,
         -2.8773e-01,  3.2163e-01,  7.9698e-01],
        [ 6.5216e-02,  4.2270e-01, -5.6017e-02, -2.6030e-01, -9.3623e-01,
         -1.4390e-01,  2.6577e-02, -2.0898e-01,  2.6709e-02,  4.6640e-02,
         -2.5269e-02, -9.9114e-02,  9.7139e-02,  1.9397e+00,  6.3959e-02,
         -7.0252e-02,  1.4903e-01, -3.6493e-01,  3.0279e-02,  1.4101e-01,
          1.1097e+00,  4.1601e+00, -2.8268e-02,  7.5728e-02,  4.8415e-01,
         -7.1576e-01,  1.8693e-02, -2.3416e-01,  9.4594e-01, -1.2979e-01,
         -1.4579e-02, -1.8252e-01,  5.5097e-01, -1.3557e+00, -5.6704e-02,
         -2.0700e-01, -2.5734e-02,  1.9308e+00, -1.2467e-01, -1.2808e-01,
          6.3424e-01, -1.6055e+00,  5.7824e-02, -3.1864e-01, -1.2094e+00,
          4.1742e+00,  1.1787e-02, -3.2670e-01],
        [ 3.2211e-01,  4.4438e-02, -6.7748e-02, -6.7800e-01, -3.4807e-03,
         -3.8534e-01, -5.6112e-02, -7.1340e-01,  2.8044e-01,  2.9328e-02,
         -6.7069e-01, -1.0144e-01, -1.6530e-02, -3.6373e-01, -6.1947e-01,
         -1.5352e-01,  4.6137e-01,  6.5267e-02,  4.0413e-01,  1.4647e-02,
          1.4903e-01, -6.9710e-01,  3.4730e-01,  6.8516e-02,  1.0099e+00,
         -5.2872e-01, -1.6837e-01, -2.8065e-01,  2.5133e-02, -2.9705e-01,
         -7.7627e-02, -3.0115e-01,  1.1861e+00, -7.2571e-01, -7.0885e-02,
         -3.4872e-01,  7.6113e-02, -4.4577e-01, -7.1010e-02, -3.0383e-01,
          1.7690e+00, -9.2747e-01,  3.3517e-01,  2.5116e-01, -1.1988e-01,
         -6.7781e-01,  2.8458e-01,  1.6703e-01],
        [ 9.8465e-01,  4.6566e-01,  2.1498e-01, -2.6538e-01,  2.7860e-02,
         -2.1448e-01,  1.7045e-01, -2.3823e-01,  1.0650e+00,  4.0196e-01,
         -2.3238e-01, -3.8193e-02,  1.6052e-01, -1.6352e-01, -2.0388e-01,
         -5.3268e-02,  1.3852e+00,  2.0885e-01,  5.4519e-01, -7.5760e-02,
          2.2758e-01, -2.6519e-01,  5.5232e-01, -1.8053e-01,  8.3025e-01,
         -1.0404e+00, -1.3864e-01, -2.4137e-01, -3.6977e-02, -2.5725e-01,
         -1.7181e-01, -1.9972e-01,  8.5015e-01, -9.3626e-01, -1.8031e-01,
         -1.2679e-01, -1.1591e-01, -1.8817e-01, -1.8826e-01, -2.0099e-01,
          8.3152e-01, -7.7571e-01, -1.1464e-01, -2.8477e-01, -2.2723e-01,
         -2.7899e-01, -1.3006e-01, -1.6492e-01],
        [ 5.0426e-01,  2.3352e-01,  1.9198e-01, -7.5505e-02, -2.8382e-01,
         -2.5203e-02,  1.8063e-01, -1.3408e-02,  3.0379e-01,  2.1169e-01,
         -8.9207e-02,  9.7015e-02,  2.0541e-01, -7.5432e-02, -1.2010e-01,
          3.0701e-03,  1.3697e-01, -1.6791e-01, -1.4339e-01,  5.0482e-01,
          6.9168e-01,  1.4682e-01, -1.3646e-01,  5.3734e-01,  1.4011e-01,
         -9.4722e-02, -3.1856e-01,  2.5482e-01,  2.0988e-01, -6.3492e-02,
         -2.2734e-01,  3.5525e-01,  2.0630e-01, -2.5119e-01, -9.9052e-02,
         -3.3063e-01, -1.8847e-01, -8.0196e-02, -1.6343e-01, -2.9555e-01,
         -2.4510e-02, -3.2552e-01,  1.2407e-01,  3.6081e-01, -7.7604e-01,
          1.1141e-01,  2.0485e-01,  4.1699e-01],
        [ 2.0383e-01, -6.3701e-01,  1.5740e-02,  8.0577e-02,  9.5723e-01,
         -4.4861e-01,  1.8723e-02,  2.2516e-02,  3.5168e-01, -4.9075e-01,
          5.2932e-02, -4.3313e-01,  1.2769e+00, -6.2215e-01,  6.8824e-02,
         -4.4461e-01,  4.1352e-01, -7.8270e-01,  1.8268e-02, -6.6252e-01,
          1.2986e+00, -5.6390e-01,  6.1418e-02, -7.2476e-01, -1.6076e-01,
          1.9961e-01, -1.0773e-01, -1.8790e-01, -9.6423e-01, -5.6641e-01,
         -1.9878e-02, -2.5675e-01, -7.4273e-02,  8.3458e-01, -2.1012e-01,
         -5.7021e-01, -1.2077e+00, -6.5154e-01, -2.1127e-01, -5.9657e-01,
         -1.6236e-01,  1.4233e+00, -1.6982e-01, -3.1829e-01, -1.2565e+00,
         -4.4754e-01, -1.6064e-01, -2.2057e-01],
        [-1.5394e-01, -2.9666e+00,  2.4284e-01, -4.6991e-01, -7.6827e-01,
          1.8396e-01,  1.8983e-01, -3.9322e-01, -1.1716e-01, -2.5142e+00,
         -9.4878e-02, -3.6932e-01, -5.1491e-01, -2.0980e-01, -1.2965e-02,
         -3.7412e-01, -1.9191e-01, -2.1578e+00, -5.4721e-02, -1.1960e+00,
         -4.1228e-01, -3.7968e-01, -9.7811e-02, -1.1014e+00,  1.1692e+00,
          5.3945e-01,  5.8294e-02, -7.8538e-01,  6.8463e-01,  1.4628e-01,
          1.2512e-02, -7.0467e-01,  1.2434e+00,  8.4471e-01, -3.4056e-02,
         -2.7823e-01,  5.2447e-01, -2.2472e-01, -8.5224e-02, -2.0936e-01,
          8.7026e-01,  8.1915e-01, -2.6687e-01, -4.4003e-01,  3.7451e-01,
         -4.7149e-01, -3.2061e-01, -4.6249e-01],
        [ 5.8823e-01,  2.8569e-01, -2.4361e-02,  1.4925e-01,  4.0291e-01,
         -8.9933e-01, -7.2291e-03,  1.3218e-01,  3.8087e-01,  1.0120e-01,
          9.8427e-02, -1.5320e-01, -5.7131e-02, -2.5874e-01,  1.5402e-02,
         -1.5309e-01,  4.5333e-01,  6.9161e-02,  1.2480e-01, -3.0766e-01,
         -7.4211e-02,  1.2990e-01,  9.4347e-02, -2.6741e-01,  4.3895e-01,
          1.2921e+00,  1.2155e-01,  3.0721e-01, -3.7911e-01, -9.2018e-01,
          1.2270e-02,  3.6224e-01,  3.7405e-01,  1.2477e+00,  8.8141e-02,
          2.4502e-01, -1.4021e-02, -3.0867e-01,  6.6784e-02,  2.4985e-01,
          6.1414e-01,  9.8417e-01, -1.1189e-02, -2.1490e-01,  1.5178e-01,
          1.3949e-01,  2.6561e-02, -1.7450e-01],
        [ 5.3039e-01,  4.6812e-01, -4.9459e-03,  5.1673e-02, -8.1990e-02,
         -9.6842e-01,  3.6958e-02,  1.7146e-02,  7.0519e-01,  1.6038e-01,
         -4.9776e-02, -3.4601e-01, -6.7544e-02, -4.9957e-01, -3.2245e-02,
         -3.6046e-01,  8.2556e-01,  1.8850e-01,  8.5858e-02,  3.5939e-01,
          9.2711e-02, -2.1653e-01,  1.0368e-01,  3.8372e-01,  3.5931e-01,
          7.9927e-01, -8.8573e-02, -2.8693e-01,  9.0279e-02, -9.5468e-01,
         -4.8856e-02, -2.7441e-01,  2.7321e-01,  7.8366e-01, -1.9618e-01,
         -3.3272e-02,  3.0768e-02, -5.1363e-01, -1.5939e-01,  4.3217e-02,
          2.9601e-01,  7.1582e-01,  4.5776e-02,  9.1215e-02, -1.0996e-02,
         -1.9704e-01,  3.9217e-02,  1.5131e-01],
        [-6.1159e-02,  3.0885e+00,  9.7035e-02,  4.2685e-01, -4.4311e-01,
         -3.4650e-01,  3.9418e-02,  4.5018e-01,  4.5100e-03,  3.4121e+00,
          2.5418e-01,  7.9307e-01, -4.8390e-01, -8.1482e-01,  3.0286e-01,
          8.4401e-01,  5.9889e-02,  3.8994e+00,  9.8715e-03,  3.6998e-02,
         -4.1260e-01, -1.0845e+00,  8.0523e-02,  8.1286e-02,  5.3465e-01,
         -1.0885e+00, -1.5859e-01,  1.8923e-01,  3.8348e-01, -3.6220e-01,
         -2.1356e-01,  1.9053e-01,  3.6702e-01, -1.1218e+00, -1.0796e-01,
          3.9791e-01,  5.2903e-01, -7.3287e-01, -1.5652e-01,  3.2473e-01,
          5.4114e-01, -8.8084e-01, -3.6282e-01,  3.1837e-01,  4.2966e-01,
         -1.1150e+00, -4.0235e-01,  3.4420e-01],
        [-4.6932e-01, -1.7138e+00,  3.8122e-02, -4.4320e-02,  5.3725e-01,
          1.7865e+00, -3.0468e-03, -2.0553e-02, -6.2346e-01, -1.5349e+00,
          4.6984e-02,  1.4836e-01,  5.6283e-01, -4.3377e-01, -4.9872e-02,
          8.7616e-02, -8.3537e-01, -8.6118e-01, -3.8229e-02, -1.0213e-02,
          6.8876e-01, -3.0037e+00,  3.5916e-02,  1.9372e-02, -3.0109e-01,
          3.0640e-01,  1.3031e-02,  7.1941e-02, -4.9697e-01,  1.8967e+00,
         -1.2264e-03,  7.8191e-02, -4.2862e-01,  7.8640e-01, -1.7650e-02,
         -3.1868e-01, -5.4935e-01, -4.9463e-01,  2.2973e-02, -3.5360e-01,
         -6.3502e-01,  1.3906e+00,  6.7108e-02, -8.5562e-02, -7.2185e-01,
         -3.0401e+00,  4.6382e-02, -1.7146e-01],
        [ 2.8199e-01, -3.4197e-01, -6.5218e-02,  1.7761e-02, -2.7917e-01,
          3.1067e-01, -1.2678e-01, -3.2534e-02,  2.8909e-01, -1.4117e-01,
         -1.4558e-01,  3.5483e-01,  8.2866e-01,  1.2136e+00, -9.9104e-02,
          2.7485e-01,  3.8035e-01, -2.2166e-01, -1.2508e-01,  1.7484e-01,
          1.7446e+00,  1.7841e+00, -1.2833e-01,  1.5252e-01,  6.9487e-01,
         -3.0447e+00, -8.0907e-02,  1.8160e-02,  3.1228e-01,  2.6786e-01,
         -8.8716e-02,  4.4938e-02,  6.7107e-01, -3.3742e+00,  1.0119e-01,
          2.3895e-01, -7.1915e-01,  1.1751e+00,  8.6878e-02,  2.2818e-01,
          7.4451e-01, -2.9652e+00,  1.4132e-01, -3.8239e-01, -1.6460e+00,
          1.8397e+00,  1.2466e-01, -2.9900e-01],
        [ 1.4634e-01,  5.9490e-01,  9.7222e-03,  2.9494e-01,  8.4230e-02,
         -2.8803e-01, -4.0550e-02,  2.7839e-01,  3.8203e-01,  7.1660e-01,
          2.8623e-01, -1.2081e-01,  2.0642e-01, -9.5975e-01,  2.6613e-01,
         -8.0661e-02,  5.3516e-01,  5.2074e-01,  6.4403e-02, -3.9559e-01,
          2.1712e-01, -1.3836e+00,  2.1346e-02, -4.1457e-01,  4.8008e-01,
          5.3530e-01,  4.1861e-01,  8.1759e-01, -3.1030e-02, -2.3046e-01,
          4.0430e-01,  8.0804e-01,  7.2030e-01,  8.5710e-01,  9.7772e-02,
         -5.6150e-01, -1.7869e-01, -1.0240e+00,  5.5817e-02, -5.1797e-01,
          4.9921e-01,  8.6379e-01, -3.3615e-01,  2.9219e-02, -1.9631e-01,
         -1.4018e+00, -3.7271e-01,  3.0772e-02],
        [ 2.7899e-01,  1.5447e-01,  1.2401e-01, -1.0296e-01, -9.8077e-01,
         -1.3909e+00,  1.2120e-01, -2.6140e-02,  4.0333e-01, -2.3500e-01,
         -6.5843e-02, -8.6752e-01, -7.0067e-01, -1.3541e+00, -4.5877e-02,
         -8.2118e-01,  5.4383e-02, -6.3322e-01, -8.2050e-01, -7.3000e-01,
         -3.1974e-01, -9.7284e-01, -8.5982e-01, -7.5888e-01,  4.9695e-01,
         -1.1375e+00,  1.0676e-02, -4.5108e-01,  8.9658e-01, -1.3161e+00,
          8.4194e-02, -4.8378e-01,  4.0844e-01, -1.2187e+00, -1.3866e-01,
          2.6560e-01,  6.1409e-01, -1.2750e+00, -1.3621e-01,  2.1373e-01,
          1.4528e-01, -1.3257e+00, -2.1475e-01,  4.9903e-01,  2.6537e-01,
         -9.8223e-01, -2.2358e-01,  5.0678e-01],
        [ 1.2556e+00,  5.8551e-01, -1.0031e-01, -6.5503e-01,  7.8860e-02,
         -7.8323e-01, -5.5605e-02, -6.7873e-01,  5.3077e-01, -9.8047e-01,
         -9.8010e-02, -7.7860e-01, -2.6597e-01,  9.6703e-01, -9.7096e-02,
         -7.8831e-01,  2.1463e-01, -1.0746e+00, -9.7966e-02,  8.8984e-01,
         -3.4237e-02,  1.5653e+00,  6.0563e-03,  8.1176e-01,  1.5655e+00,
         -2.7615e-02, -1.7417e-01,  3.7638e-01, -1.1074e-01, -7.1332e-01,
         -1.3242e-01,  4.6152e-01,  8.8533e-01, -1.2024e+00,  7.8354e-02,
         -2.5804e-01,  2.0265e-01,  9.3684e-01,  8.2762e-02, -3.0805e-01,
          7.1275e-01, -1.8724e+00,  9.0064e-02, -1.8780e-01,  7.0195e-02,
          1.5424e+00,  2.2602e-02, -1.1302e-01],
        [ 5.4487e-01,  5.2865e-01, -1.5938e-02,  3.9894e-01, -3.3989e-01,
         -3.7058e-01, -6.2264e-02,  4.1490e-01,  7.4494e-01,  8.4008e-01,
         -3.7476e-02,  4.2233e-01, -4.0398e-01, -1.5199e-01,  3.6724e-02,
          3.5813e-01,  1.2777e+00,  1.0259e+00,  8.2810e-01,  9.0833e-02,
         -7.2292e-01,  3.5110e-01,  8.1211e-01,  1.3405e-01,  5.7996e-01,
         -5.6779e-01, -1.8710e-01, -4.8225e-01,  4.5445e-01, -3.8177e-01,
         -1.8163e-01, -4.7353e-01,  5.1085e-01, -2.9736e-01, -7.0877e-02,
          3.4671e-01,  4.1346e-01, -5.7908e-02, -1.3084e-01,  4.0763e-01,
          6.2670e-01, -5.8937e-02,  1.2376e-02,  2.6304e-01,  7.1107e-01,
          2.7608e-01,  1.1900e-02,  2.9543e-01],
        [ 5.9933e-01, -1.4801e+00, -8.1134e-02, -7.7297e-01, -3.0871e-01,
         -7.6138e-01,  3.0284e-02, -7.3130e-01,  6.4141e-01, -1.4991e+00,
          6.8936e-02,  2.0216e-02, -7.6851e-01, -7.3136e-02,  5.2576e-02,
          8.6565e-02,  6.3547e-01, -8.5930e-01, -2.2980e-01,  1.7429e+00,
         -1.1037e+00,  4.8605e-01, -2.4927e-01,  1.7270e+00,  6.9347e-01,
          8.0982e-01, -1.2057e-01, -1.3423e+00,  2.6170e-01, -7.6582e-01,
         -2.1035e-01, -1.3096e+00,  6.0789e-01, -2.6923e-01, -9.6794e-02,
         -4.0519e-01,  8.1633e-01, -1.1955e-01, -1.6667e-01, -3.7833e-01,
          5.8021e-01, -1.3353e+00,  2.5254e-01, -8.2238e-01,  1.1231e+00,
          5.0966e-01,  1.9410e-01, -7.9013e-01],
        [ 9.4417e-01,  1.4534e-01, -1.6255e-01,  1.6296e-01, -3.8799e-01,
         -4.4204e-01, -1.2275e-01,  1.8515e-01,  7.2847e-01,  1.9771e-03,
         -1.2949e-01, -3.7067e-01, -4.1133e-02, -2.3863e-01, -7.4417e-02,
         -2.9864e-01,  6.3820e-01,  5.7093e-02,  4.1803e-02, -4.0807e-01,
          3.8314e-01, -7.4432e-04, -3.4341e-03, -3.8433e-01,  3.3927e-01,
          6.3340e-01, -5.9184e-02,  1.5338e-01,  3.6574e-01, -4.8835e-01,
         -1.0713e-01,  1.2411e-01,  2.7998e-01,  5.0808e-01, -1.4890e-01,
         -1.9835e-01,  2.4754e-02, -1.4399e-01, -1.7275e-01, -2.2816e-01,
          3.4403e-01,  5.5964e-01, -1.3234e-02, -1.9853e-01, -4.2760e-01,
         -7.7309e-02, -5.2090e-02, -2.7440e-01],
        [ 5.0156e-01, -9.0456e-01, -2.0410e-01, -6.3980e-02,  2.6521e-01,
         -1.3028e+00, -1.2532e-01, -5.0681e-02,  4.7172e-01, -7.8895e-01,
         -1.2627e-01,  1.3513e-01,  3.1806e-01, -1.2361e+00, -2.1442e-01,
          1.9440e-01,  4.9461e-01, -8.7085e-01, -2.2408e-01, -6.6616e-01,
          1.4838e-02, -3.2794e-01, -2.9651e-01, -6.1345e-01,  3.4425e-01,
          2.1378e+00,  1.1207e-01,  7.1336e-01, -2.3547e-01, -1.2494e+00,
          1.2143e-01,  7.6171e-01,  4.9876e-01,  2.3316e+00,  2.6847e-01,
          2.0318e-01, -2.6161e-01, -1.2437e+00,  2.5992e-01,  1.6488e-01,
          8.1538e-01,  1.4967e+00,  1.7872e-01, -1.3658e+00, -7.3754e-02,
         -3.6661e-01,  2.0071e-01, -1.3515e+00],
        [-1.9452e-01,  4.6303e-01, -2.8340e-01,  2.1377e-01, -3.5568e-02,
         -4.0053e-01, -2.9454e-01,  2.6325e-01,  3.2401e-01,  6.1897e-01,
          1.4442e-01, -8.9839e-01, -1.5418e-01, -8.7163e-01,  1.8745e-01,
         -8.6028e-01,  4.9920e-01,  3.5157e-01,  5.3237e-02,  6.8174e-02,
         -4.3611e-01, -1.0754e+00,  1.2979e-01,  6.3954e-02,  5.8232e-01,
          4.3501e-02,  6.6203e-02,  5.4976e-02,  6.5485e-02, -4.1537e-01,
          1.7492e-02,  1.5844e-01,  7.8550e-01,  4.5814e-01,  3.4182e-02,
         -2.3687e-01,  1.5910e-01, -9.0219e-01,  6.9589e-02, -1.3309e-01,
          8.3228e-01,  4.5878e-01,  1.7071e-01, -3.9826e-01,  3.7583e-01,
         -1.1000e+00,  1.4303e-01, -4.5773e-01],
        [ 3.6310e-01,  2.3692e+00, -2.5862e-01,  9.0829e-01, -1.9907e-01,
         -8.2801e-01, -3.7670e-01,  9.0857e-01,  2.7591e-01,  2.7677e+00,
         -3.5742e-01,  1.1075e-01, -4.1615e-01, -5.0280e-01, -2.7979e-01,
          1.2908e-01,  2.0787e-01,  1.7652e+00,  6.0261e-01, -7.8322e-01,
         -2.4029e-01, -1.0150e-01,  4.9771e-01, -7.4352e-01,  5.3571e-01,
         -9.9038e-01,  2.7461e-01, -5.8820e-01,  2.0069e-01, -8.3040e-01,
          2.3747e-01, -5.8643e-01,  6.1247e-01, -1.1938e+00,  1.5428e-01,
         -2.9634e-01,  3.4554e-01, -5.4203e-01,  6.3399e-02, -3.4402e-01,
          4.8226e-01, -8.7392e-01,  1.3342e-01, -5.8422e-01,  2.3027e-01,
         -9.0550e-02,  2.3121e-01, -5.5452e-01],
        [ 6.2902e-03,  3.8554e-01,  1.0572e-02,  6.5401e-01,  1.4114e-01,
         -4.9298e-02, -2.3377e-02,  6.0764e-01, -1.8193e-01,  6.7292e-01,
         -1.3586e-01,  7.6992e-01,  1.8281e-01, -3.2526e-01, -1.8087e-01,
          8.1150e-01, -9.0109e-02,  1.2058e+00, -2.8681e-02,  6.6107e-01,
          3.1463e-01, -8.0166e-01, -1.7519e-02,  5.6502e-01,  7.8392e-01,
          1.2344e-01, -2.8882e-01, -7.6713e-03, -1.6106e-01, -6.4711e-02,
         -1.8054e-01,  3.4669e-03,  6.4375e-01, -2.1777e-01, -1.1910e-01,
         -1.0348e+00, -2.8448e-01, -2.9088e-01, -1.0162e-01, -9.8159e-01,
          5.6893e-01, -1.4892e-01, -6.1323e-01, -2.4122e-01, -3.1252e-01,
         -8.0315e-01, -5.9359e-01, -2.6493e-01],
        [ 3.1761e-01,  1.3972e+00, -7.2850e-02, -2.7611e-01, -6.9558e-01,
         -2.2213e-01, -3.5905e-02, -2.6901e-01,  2.1346e-01,  1.9738e+00,
         -7.3676e-02,  1.0835e-01, -1.0638e+00,  5.1955e-01, -1.2330e-01,
          9.1762e-02,  1.7026e-01,  1.5853e+00, -9.0645e-02, -6.8008e-01,
         -1.2688e+00,  1.5295e+00, -1.5714e-02, -6.6197e-01,  5.8242e-01,
          3.4539e+00, -4.4105e-02, -2.8657e-01,  7.7574e-01, -2.0490e-01,
         -9.2260e-02, -3.0389e-01,  6.1303e-01,  2.5867e+00,  5.2368e-02,
         -8.4074e-01,  1.0817e+00,  5.7090e-01,  3.6438e-02, -9.1818e-01,
          6.1691e-01,  1.2230e+00,  4.9759e-02, -1.2149e+00,  1.2918e+00,
          1.5024e+00,  3.6397e-02, -1.1677e+00],
        [ 8.8424e-01,  4.4713e-01, -2.5313e-01,  2.2345e-01,  3.5430e-01,
         -1.0065e-01, -2.5207e-01,  2.2682e-01,  9.9526e-01,  4.8659e-01,
          3.5169e-01, -2.0560e-01,  5.3540e-02,  6.5544e-02,  3.1272e-01,
         -2.8110e-01,  1.1212e+00,  3.3451e-01, -1.0981e-01, -9.9407e-01,
         -2.2067e-01,  4.6005e-01, -8.9698e-02, -1.0474e+00,  2.9176e-01,
          5.8846e-01,  7.2657e-02, -5.0918e-01, -3.7141e-01, -6.7751e-02,
          1.9597e-02, -4.0940e-01,  3.7878e-01,  3.6440e-01, -3.8553e-02,
         -7.0807e-01, -5.7541e-02,  8.6677e-02, -4.2071e-02, -7.9675e-01,
          4.0023e-01, -5.0175e-02,  1.4069e-01, -2.5968e-01,  2.8065e-01,
          4.7762e-01,  2.0074e-01, -2.7992e-01],
        [ 7.6534e-01, -2.7988e-01,  4.2020e-02, -2.6676e-01,  2.4358e-01,
         -9.0009e-01, -6.4857e-02, -2.7224e-01,  1.0252e+00, -1.4823e-01,
          6.0012e-01,  6.6162e-01,  3.9833e-02, -1.0272e+00,  6.5901e-01,
          5.8368e-01,  1.1687e+00,  2.2092e-01,  1.6587e-01,  9.4284e-01,
         -1.1619e-01, -7.8213e-01,  2.8727e-01,  1.0098e+00,  3.7823e-01,
          9.7344e-01,  2.1007e-01, -9.3425e-01, -1.7229e-01, -9.6940e-01,
          1.5097e-01, -9.1246e-01,  4.0611e-01,  6.9314e-01, -3.8757e-01,
          9.1631e-04, -9.8934e-02, -9.3169e-01, -3.6377e-01,  4.4998e-02,
          6.0133e-01,  7.6024e-01,  1.3510e-01,  7.0362e-01,  1.1878e-01,
         -8.4052e-01,  8.2442e-02,  7.4307e-01],
        [ 4.0617e-01, -3.0632e-01, -2.0482e-01,  2.8072e-01, -2.8059e-01,
         -8.0614e-01, -8.2432e-02,  2.1057e-01,  5.2563e-01, -1.4879e-01,
          1.3666e-01, -2.3351e-01, -2.6015e-01, -6.4748e-01,  2.1167e-01,
         -1.9890e-01,  5.4822e-01,  1.1979e-01,  4.1286e-02,  2.2301e-01,
         -4.7415e-01, -7.4880e-01, -4.4577e-03,  1.5600e-01,  1.0157e+00,
          2.2121e-01,  7.4607e-02, -1.5933e-02,  2.2935e-01, -7.9425e-01,
          7.4616e-02, -2.4933e-02,  9.6194e-01, -2.8431e-02,  3.3509e-02,
         -2.3023e-01,  1.8558e-01, -7.3004e-01, -7.4470e-03, -2.4775e-01,
          7.8450e-01, -2.8517e-01, -1.5714e-01,  3.9274e-01,  5.1601e-01,
         -7.4424e-01, -1.2115e-01,  4.3799e-01],
        [ 1.1669e+00,  2.1168e+00, -9.8510e-02, -5.0493e-01,  1.5688e-01,
         -1.0014e+00, -1.2883e-01, -4.9546e-01,  3.7128e-01,  7.9645e-01,
         -1.8288e-01, -8.6100e-02, -3.8912e-01,  5.4553e-01, -2.1840e-01,
         -8.5452e-02, -2.4916e-01, -3.4287e-01, -3.6837e-02, -3.9534e-01,
          4.5879e-01,  1.0538e+00, -5.8287e-02, -4.6245e-01,  1.6637e+00,
         -2.7760e-01, -1.4107e-01,  3.0452e-02, -9.9670e-02, -1.0820e+00,
         -1.2276e-01,  4.8891e-02,  9.2463e-01, -1.4793e+00, -2.1574e-01,
          1.3687e-01,  3.2027e-01,  5.3581e-01, -3.0011e-01,  9.7510e-02,
          2.8287e-01, -1.8953e+00, -3.4509e-01, -3.6162e-01, -4.7470e-01,
          1.0618e+00, -3.1798e-01, -3.2115e-01],
        [ 2.5612e-01,  1.1860e+00,  1.6811e-01,  8.5489e-01,  1.3623e+00,
         -9.1547e-01,  1.2551e-01,  8.1382e-01,  2.7363e-01,  1.2165e+00,
          1.1077e-01,  3.4303e-01,  9.8625e-01, -7.7950e-01,  1.0160e-01,
          3.3085e-01,  2.7845e-01,  9.1228e-01,  3.2093e-02, -4.3617e-01,
          4.3146e-01, -3.2562e-01,  7.4452e-02, -4.8445e-01,  1.9996e-01,
          4.3930e+00,  2.8105e-02,  9.5581e-02, -1.3026e+00, -9.7561e-01,
          1.1870e-02,  1.0374e-01,  1.1163e-01,  5.5577e+00, -1.4813e-01,
          4.4715e-01, -1.0700e+00, -7.7049e-01, -1.6574e-01,  4.2358e-01,
          1.0716e-01,  5.4677e+00, -1.2489e-01, -3.0971e-01, -3.5617e-01,
         -2.9938e-01, -8.6377e-02, -2.1005e-01],
        [ 6.9775e-01,  1.5568e+00, -4.0745e-02,  2.9809e-02,  9.8927e-01,
         -1.0478e+00,  7.1460e-02,  3.0442e-02,  7.1404e-01,  1.2217e+00,
          4.9546e-03, -1.9922e-01,  1.7316e+00, -3.7479e-01, -2.3298e-03,
         -2.3778e-01,  8.4251e-01,  7.8727e-01, -1.1845e-02, -6.4483e-02,
          2.3282e+00,  5.6747e-01, -6.3296e-02, -6.5280e-02,  7.7660e-01,
         -3.7970e+00, -1.3695e-01,  9.3931e-02, -1.0285e+00, -9.7665e-01,
         -1.3908e-01,  1.2651e-01,  9.1822e-01, -2.5801e+00, -9.5415e-03,
          9.2417e-02, -1.6554e+00, -4.4625e-01, -8.4586e-02,  8.3937e-02,
          1.0031e+00, -1.0410e+00, -1.9186e-01,  1.4147e-01, -2.3210e+00,
          5.5350e-01, -1.2467e-01,  6.5998e-02],
        [ 9.2403e-01, -1.0118e+00,  1.8650e-01,  1.4125e-01, -3.2394e-01,
         -6.9488e-01,  1.1681e-01,  1.4724e-01,  8.8869e-01, -8.8647e-01,
         -1.5560e-01, -4.6375e-01, -3.7811e-01, -1.3478e+00, -3.5013e-02,
         -4.7368e-01,  9.3612e-01, -7.2679e-01,  1.2641e-01,  6.8373e-01,
         -3.2349e-01, -2.0832e+00,  2.0125e-01,  6.8497e-01,  7.6359e-03,
         -8.9186e-02, -3.1874e-02, -3.1745e-01,  3.6039e-01, -6.0995e-01,
         -1.4401e-02, -2.8947e-01,  2.4178e-02,  3.0168e-01,  6.2709e-02,
          5.5710e-01,  3.7703e-01, -1.3436e+00,  3.0851e-02,  5.5815e-01,
         -3.6118e-02,  5.8537e-01, -5.7785e-01,  7.5836e-01,  4.1458e-01,
         -1.9999e+00, -5.0150e-01,  6.6945e-01],
        [ 3.4085e-01,  5.3822e-01, -4.0158e-02, -3.1193e-01,  4.1118e-01,
         -5.6570e-01, -8.1279e-02, -2.1499e-01,  3.9868e-01,  6.4844e-01,
         -2.5228e-01, -5.9008e-01,  1.7762e-01, -8.7360e-01, -2.1082e-01,
         -5.4068e-01,  3.7553e-01,  1.9042e-01,  1.3476e-01, -5.6124e-01,
         -7.6881e-02, -8.5977e-01,  5.1947e-02, -5.3046e-01,  1.0258e+00,
          2.9629e-01,  7.1252e-01,  4.2915e-01, -3.3797e-01, -5.6181e-01,
          6.3236e-01,  4.5637e-01,  8.6726e-01,  5.0176e-01, -4.0777e-01,
          2.8542e-01, -1.4528e-01, -8.0426e-01, -4.1178e-01,  2.1540e-01,
          7.8218e-01,  5.0203e-01, -4.1214e-01, -2.9150e-03,  1.4631e-01,
         -8.9038e-01, -3.6240e-01,  1.0354e-01],
        [ 4.6970e-01,  4.7907e-01, -6.7933e-03, -8.3523e-01,  2.6621e-01,
         -7.3681e-02,  7.4893e-02, -8.1677e-01,  5.8680e-01, -7.6643e-03,
         -3.9952e-02, -8.4517e-01,  6.8679e-02,  2.4673e-01, -6.7287e-02,
         -7.4842e-01,  6.5087e-01, -5.1243e-01, -5.5989e-02, -7.4808e-01,
          9.8267e-02,  5.4908e-01, -6.8885e-02, -7.5583e-01,  2.3897e-01,
          6.3262e-01,  3.0548e-02, -4.6827e-01, -2.8429e-01, -8.8518e-02,
         -7.5373e-02, -4.7082e-01,  1.7074e-01,  2.4942e-01, -2.0286e-01,
